-9.937404747894207011e-03
1.744377498777762879e-03
-2.149781735934997752e-03
-1.970035798804573458e-03
-2.557401711598030012e-03
-6.771528676502624501e-03
-9.879759079996358606e-04
-5.718686248073489437e-03
-6.715035153923032581e-03
-2.610837790064750568e-03
-2.466816026133976207e-03
-2.102296863663886094e-03
-4.525994857160629456e-04
-2.788471664791236215e-03
1.556901922108371288e-03
1.490484985565514653e-03
2.549363268080040174e-03
-2.017780178522058949e-03
-1.792279913540623711e-03
7.213022146974770819e-04
-2.480605162052246498e-03
-3.315695916036980658e-03
-3.195109880357602586e-03
-5.368594057640231100e-03
-3.399547464780555781e-03
-7.469805229067627214e-03
-6.627602908206102136e-03
-1.485094932945220814e-03
-6.318995945382326236e-03
-1.258367188771741287e-02
-2.517249279317669303e-03
2.083680841297069850e-03
-4.602967864502757918e-03
-5.401386595243726912e-03
-5.298219965741087639e-03
-1.182210261490571112e-03
-2.292473370594403856e-03
1.736055272269732604e-03
-9.175166010256986457e-03
-8.836843364160596251e-03
-6.123279811250598517e-03
-3.338801201025390960e-03
5.171061884387854850e-03
-4.152296786206740968e-03
-4.754523107480646861e-03
-1.093396653888772940e-03
8.685495791938529619e-04
1.603539329434655516e-04
-6.916590069047593835e-04
-1.784252689475622055e-03
-6.668207374524230853e-03
-5.847828991540925982e-03
-2.353100926162428330e-03
-1.779467949430775173e-03
2.703698227029266953e-03
4.736748407071282758e-03
1.077056599121147679e-02
-3.680070499006163343e-03
1.094411518707387150e-03
-4.114801195601235258e-03
-4.064013752441618561e-03
-2.006152057557946452e-03
-5.244884576378806449e-04
-8.972360616788496767e-04
-1.010026350633564307e-03
-1.322642574674718144e-03
-2.433530211039784761e-03
-4.951896711226386714e-03
-5.681925728835929106e-03
-6.896402051851226699e-03
-5.051913405769611377e-03
6.668142355215486369e-05
3.710095165007142558e-03
6.687258669884663109e-03
1.347440512825146854e-02
-3.539715179142960150e-03
-1.866198802109252401e-03
-6.875029092920802512e-03
-1.616491374911559111e-03
3.014344462811741803e-04
-1.387343502071850324e-03
-3.529853868396218980e-03
-2.540306739498636359e-03
-5.590380512036236807e-04
6.451199350849747167e-04
-2.040035499486998576e-03
-5.069505560902259726e-03
-5.313429140969403407e-03
-4.609617150137655661e-03
-9.761343406928051601e-04
3.670667638787594722e-03
4.716813305532730448e-03
6.237631116886842644e-03
-1.383014126824122720e-03
-2.650106916184568479e-03
2.785511954321179869e-03
-1.877136971203597965e-03
-2.754994974172496011e-04
2.742699945034822017e-03
1.785750095628013765e-03
-8.210902214127726792e-04
-4.140811467766136039e-04
8.182514727689643675e-04
3.048683083631908530e-04
-2.124649838074720021e-03
-4.385515437726444053e-03
-4.932624518968917356e-03
-3.615498845808571161e-03
-4.252849288093665521e-04
2.458091401512525406e-03
3.066541234588725066e-03
5.507611929617108049e-03
6.253710530847121467e-03
-2.202643349331886123e-03
-3.369454545411852426e-03
-4.251110063774671960e-03
-2.303074008132034115e-03
-3.469328753505816158e-03
3.721985292715081044e-03
3.987891981141888573e-03
5.846139460040845242e-04
-3.756125699103117000e-04
-3.249894574878308502e-04
-7.855396873605277911e-04
-2.152767737692414408e-03
-3.308071942791658213e-03
-3.299673334065473997e-03
-1.729972511236035253e-03
1.402362849198164141e-03
4.131433594925263894e-03
4.909414283051289837e-03
5.905036905549611650e-03
7.195942130045871951e-03
-2.805905770496561983e-03
-3.658874612108665731e-03
-3.669984484774779614e-03
-9.662895407952724891e-03
-2.705748548338820971e-03
-1.343383633657973175e-03
3.876521117597331138e-03
3.782861178131689296e-03
1.550175106072549823e-03
-1.704776975760017514e-04
-7.691538113976207095e-04
-5.060962517213745803e-04
-2.497208491877354170e-04
-6.744320197101480745e-05
3.903326404315800714e-04
1.272086960752454986e-03
4.363807476535357978e-03
6.231488558116311284e-03
7.471892554268950125e-03
9.225196485083861711e-03
6.698559014140306744e-03
9.905166217828416733e-03
-3.565086285836049571e-03
-7.038533117664559115e-04
-3.513253226400328208e-03
-5.943804530114781513e-03
6.808304545624645990e-04
3.306356125042337040e-03
3.431042944179321999e-03
2.532910710027900820e-03
1.966095818316516714e-03
1.564649484407230787e-04
-2.272330768572235454e-04
1.002335323952108660e-03
2.673961388116595159e-03
2.952091667160434106e-03
3.825850700676667292e-03
5.699499380067508947e-03
7.142999394104974920e-03
8.669435122360307291e-03
9.354830194247534467e-03
9.168084875245695320e-03
8.254452728043501150e-03
-2.277942553484860189e-03
2.680785871687077753e-03
-3.532614466067275161e-04
-2.503296783826502742e-03
1.281757152422999257e-03
2.619631871183536204e-03
2.704607296385539740e-03
2.406130638902479347e-03
1.554309615201763042e-03
7.202772106295862167e-04
7.107050348828039543e-04
2.376901624408460541e-03
3.815545055561495556e-03
5.801721836341018276e-03
6.841747807993954315e-03
7.786216489331840122e-03
7.033586555437879376e-03
5.895229562325723406e-03
6.328889841300343495e-03
5.484790042889916249e-03
4.604880900839707081e-03
1.135347956066308029e-03
3.005609952493712607e-03
-1.031664878200985085e-03
-1.159461319929860250e-03
1.679520532714287280e-03
3.253251378422028061e-03
3.752024437739166600e-03
3.721373088933427071e-03
2.467011382583228843e-03
1.619693023705709662e-03
1.306079635638275876e-03
2.494515747705653135e-03
2.544870951033347851e-03
5.255263510838614066e-03
6.360817416656008687e-03
8.140441678946008786e-03
6.818979243494370686e-03
5.650440185098327787e-03
3.370496197865234782e-03
4.015471056809814289e-03
6.308053946715463066e-03
-5.301746771095871592e-04
2.889646330146382509e-03
2.313288114696470353e-03
4.321383843702180858e-03
3.600628786634561557e-03
2.325042430706596077e-03
2.956255869290904097e-03
3.516256789468419613e-03
3.165291747734084050e-03
2.446655538839087336e-03
1.538504560380845026e-03
1.876195687390485234e-03
3.908726689545480130e-03
4.652974875576836554e-03
5.884409884062446680e-03
5.704996209655948357e-03
5.963321038426744151e-03
6.119153361527450777e-03
4.628390853325180937e-03
5.939512593594029055e-03
-2.913958290510874357e-05
1.316337759372292800e-03
5.043013743879907161e-03
7.723671621224620018e-03
5.439673682744621160e-03
3.946231590165074493e-03
5.645991482402726649e-03
4.514099135159214266e-03
3.193385758198847429e-03
1.765018654277504062e-03
1.519366951792103541e-03
6.447076160879429288e-04
1.050118292348924858e-03
2.420801826574509562e-03
2.975173685233269659e-03
2.638021500409070026e-03
4.710771167043209876e-03
6.363370627765119539e-03
5.144608857245431925e-03
1.356395055032760507e-03
5.557656521314950637e-03
7.539246935930029973e-03
4.702346340834161718e-03
3.260053441256746589e-03
2.334682836164776124e-03
1.441598149197547861e-03
1.030295614184005169e-03
1.907544278037085709e-03
9.416752539462349162e-04
8.735175810622804096e-04
2.359392630913594892e-03
1.258754031218654889e-04
1.737114761499813182e-03
2.165804135578743017e-03
2.425248250886870380e-03
3.683451430889231326e-03
2.280597246733236366e-03
5.756376743081892573e-03
5.096092907334370814e-03
8.591681999538599776e-03
5.624334586729187735e-03
2.633892743193884888e-04
-7.254181755791372644e-06
2.424779842690603232e-03
8.849028512182814275e-04
2.175201866962549798e-03
-8.954175647466953297e-03
-7.463519766636048103e-03
-7.365671809211067796e-03
-6.715711112278851223e-03
-1.012251154270758097e-02
-1.481152181723868007e-04
3.958619024843294983e-03
2.342138926367584757e-03
-9.017336905914295764e-04
2.262290283049658932e-03
-7.177940506140963618e-04
-8.407468213215706782e-03
-1.658514992002285693e-02
-9.408640925439443192e-03
-8.314650780479646008e-03
-1.228945410952424037e-02
-1.103405723544463070e-02
-1.688084308140121127e-03
4.140541445734257308e-04
-5.633532942477323738e-03
2.144431089189802707e-03
-3.841038298740758221e-04
-4.066970718435053249e-03
-2.818383567425928986e-03
-2.225483729376634932e-03
-1.314260229287673087e-03
-3.759648732442453893e-03
-5.841284411913595653e-03
-1.207766922423504294e-02
-1.297272513252793573e-02
-1.218702099674526772e-02
-5.288752248488119700e-03
3.128181089033706033e-03
3.156509288767137423e-03
-1.820617918307354923e-03
-4.158690234462285133e-03
-8.935473792686686456e-03
-5.528119815223581091e-03
-6.466661664730655353e-03
-7.200840365886329933e-03
-4.755918970534049432e-03
-1.190937635808088021e-03
-3.228331903910208051e-03
-3.555095785376393997e-03
-4.997386602295102176e-03
-9.870729298815118444e-03
-1.053334037909526254e-02
-4.628929182300981111e-03
2.045369432238160635e-03
2.390466905403903271e-03
3.882635830567984780e-03
4.249668261925199260e-03
5.872178340768086091e-03
3.902516554949921491e-03
4.073575497084463287e-03
-7.589229689512696359e-03
-1.235450388904103282e-03
-4.457824959491521813e-03
-3.379574855933460166e-03
-2.522674550431606901e-03
-1.981996633697440200e-03
-4.336994350010639661e-03
-3.998670438089114640e-03
-3.634753488003524859e-03
-6.426535081324991593e-03
-4.299965163412438306e-03
-4.618968444953816077e-04
7.942213983204119299e-04
4.725409044355364727e-03
7.152907846640023729e-03
6.578331708573726365e-03
2.361942068293166382e-03
2.092580771022813438e-03
-3.485107989449731224e-03
1.666760801388130755e-03
6.555105012958595224e-04
1.087192372788377270e-03
-1.203383221797965121e-03
-1.793957525474656296e-03
-2.137186666639947791e-03
-1.475444112238828492e-03
-1.315901564082570113e-03
-1.816180949837252392e-03
-1.582025948984797569e-03
-2.112743423955861996e-03
-2.489585921405806142e-03
3.910474022477352952e-05
1.844438525487549418e-03
4.423258109575192894e-03
8.169001479309673935e-03
9.800051687065923847e-03
1.007456730587233222e-02
6.339472772507347663e-03
2.074124354839271787e-03
-2.964874885374415864e-03
-1.791600810423835642e-03
2.472888036290439746e-04
-2.605165089479784691e-03
-3.486193688968427726e-03
2.714392897313828643e-03
-1.696903069090665520e-03
-2.282211763583846895e-03
-1.630726379854192899e-03
-3.709131177373558392e-04
3.416038445715854671e-04
6.211750472298134453e-04
-1.867160144641368306e-04
-6.636585449887321157e-04
5.998058393498084282e-04
2.132215926392641656e-03
4.733776536229627845e-03
7.836401252412644389e-03
9.253838816277532020e-03
9.978170756552847895e-03
1.009232334666927688e-02
6.885391678881956114e-03
6.601284258815049918e-03
-6.035173811916775361e-04
-3.682523350455553079e-03
-7.661913001706257761e-03
-7.331579717683752231e-03
-4.220747742904935006e-03
2.354850161138043359e-03
2.946811062640822027e-04
-1.900115751644657720e-03
-2.038296676145083270e-03
-2.395888796936954351e-04
1.776396357726944385e-03
1.744485233024207398e-03
5.067867233373968521e-05
-1.209360243626074428e-03
-8.438419067989358672e-04
1.320716574796777006e-03
3.920098590880371006e-03
6.705500100026421696e-03
7.696761897854263908e-03
8.777004002368214708e-03
8.995280251335441637e-03
9.443490032264858017e-03
7.107859565012315806e-03
-1.788570286746766049e-03
-3.756885686337984448e-03
-4.266604032439106318e-03
-5.672930305985496996e-03
-6.333511301545424917e-03
-4.218369846113384568e-04
3.455606575722796323e-04
-6.235344477092324500e-04
-8.246565224007164352e-04
3.498517406390671473e-04
1.611593267979603492e-03
8.736030418590828546e-04
-1.195018871629886272e-03
-2.516731540220602543e-03
-1.998934420484737694e-03
3.488643150290077080e-05
2.790545895259879863e-03
5.192637908659167821e-03
6.351990501795182729e-03
7.054394408694194228e-03
7.333265222604837610e-03
7.502113314214295565e-03
5.483994504999348610e-03
2.847022477341737369e-04
-4.218473389828518785e-03
-2.800900521622044000e-03
-6.830020652610163841e-03
-6.353414567370741471e-03
-2.579547244938707080e-03
-1.678218539768236385e-03
1.281331179842004489e-03
1.880090308582507697e-03
9.473457757624667878e-04
7.052575165249569617e-04
8.801778961292210665e-04
1.896655204694610349e-04
-1.214500415816442778e-03
-2.025036942358582250e-03
-1.451380563245987338e-03
4.956670892635542131e-04
3.266244755235709653e-03
5.502529244777244408e-03
6.354312447023218770e-03
6.616353301509637734e-03
6.761469349965228658e-03
6.603822317995410029e-03
6.236507307162626572e-03
7.675382075091738074e-03
-2.245740410563001107e-03
-3.144788484501614533e-03
-2.225576680740183350e-03
-3.595188179573635071e-03
-3.904341565470714499e-03
-3.072935703504662240e-04
-1.406217374456392080e-03
1.115730655614825340e-03
2.383967037582273522e-03
2.094081196170990283e-03
1.008457048948179207e-03
7.526811208932395912e-04
9.841077895837132064e-04
1.048948838773677969e-03
1.150505052597734562e-03
1.687227338189774490e-03
2.993103321930392930e-03
5.106750350092043207e-03
6.683597568122183301e-03
7.009111938558362266e-03
6.813890957305654417e-03
6.351525770845740763e-03
5.308959243111152117e-03
6.906937900838805607e-03
8.495798329695537082e-03
-3.371243744088444402e-03
-2.813825207284816315e-03
-3.707034535945183309e-03
-5.949144851071762503e-03
-3.261347592669865819e-03
2.286590029800843020e-03
3.176706387584077741e-03
1.226575277437148923e-03
1.540644460092765403e-03
1.501863878892423232e-03
1.005218508222101119e-03
1.473179438306747909e-03
3.004340267766694543e-03
4.472410405308960453e-03
5.269355557520017004e-03
5.507742382166241728e-03
5.671392004897059247e-03
6.373739692805325922e-03
6.703366328590525981e-03
6.196880027255711673e-03
5.608458821657442799e-03
4.835189052759251982e-03
2.133734911488585108e-03
1.259471031261267518e-03
5.165354414167981634e-03
-1.662452636889232406e-04
-2.387054793911482561e-03
7.968506819070047555e-05
-6.228435275588722246e-04
-5.212666823162578379e-03
-2.047618105829228374e-03
2.805254138622995542e-03
3.587313404967338703e-03
1.324809846817060193e-03
8.461283438390057978e-04
6.910459779686232333e-04
7.305173359875419053e-04
1.701535545935497660e-03
3.848058694764229341e-03
6.176955260327850021e-03
7.709594968198572700e-03
7.777539096566295738e-03
6.625170658573021308e-03
5.548743218755355054e-03
4.657403915034837895e-03
3.741037120142404280e-03
3.354849535515858246e-03
3.073423030112517555e-03
4.143459615211096854e-04
2.509066045875281664e-04
1.589453532359317439e-03
4.145086360538395446e-04
-1.452243719265503040e-03
-3.844957256878128986e-03
-1.680741761145620626e-03
-2.890349534718510745e-03
7.517511857469354577e-04
4.859535833100012484e-03
3.392363788056724713e-03
2.467255374250262520e-03
1.658356715695347107e-03
1.071696299038198737e-03
6.067643918206243195e-04
7.634662706952670625e-04
2.174538489016891816e-03
4.690418903806774231e-03
7.175799664373238781e-03
7.639659256430049103e-03
5.931566164007023335e-03
3.908507260191768605e-03
2.646745849503387600e-03
1.953300123718536112e-03
2.093028562664030635e-03
2.529135854558080179e-03
2.481261399473597661e-03
5.425150049929100896e-04
-2.680580048449899590e-03
-2.979261490763435074e-03
-3.652898504546115734e-03
-8.177168762518722926e-04
3.574458589143088890e-03
6.826630692682435914e-03
6.034220366624251652e-03
4.531293004718235824e-03
3.321165240410568244e-03
2.637490299836076253e-03
1.921012434920578221e-03
7.355052661985568086e-04
-5.111854285874187481e-04
-6.432734604845072746e-04
1.242945227470231093e-03
4.138285856344682892e-03
5.280392885835966284e-03
4.185229468484422642e-03
2.831992352478064721e-03
2.471052569450870196e-03
2.397485764356716356e-03
2.558468215622942184e-03
2.852778240656901349e-03
2.561435761416085925e-03
-1.126421206415104690e-03
2.393968392769745771e-03
-2.244276558923557086e-03
-3.817696999150738037e-03
-6.549574478657211370e-04
3.372193000687317282e-03
8.612339532791026681e-03
7.836485929450243137e-03
4.653446905285445884e-03
3.056838820495066944e-03
2.980152038209059415e-03
2.821477403521213592e-03
1.476047055553669383e-03
-8.179165726277841863e-04
-2.349498923329429185e-03
-1.586174181410732447e-03
7.960516959613810669e-04
2.212123473056027377e-03
1.978685516385634332e-03
1.924115854468019674e-03
2.842984524523841251e-03
3.322419143439510336e-03
3.126536281918257040e-03
2.706656797285794235e-03
1.608327885508779908e-04
-1.256223602163747573e-03
-3.035651878198741480e-03
-2.021574445604697179e-03
2.488167364609927216e-03
7.053564191782053794e-03
3.875991962579729104e-03
2.581268018419939896e-03
1.780616504589838068e-03
2.490198420872996501e-03
3.250341138007817755e-03
2.378474535299862809e-03
3.819938096053292019e-05
-1.970545921996496707e-03
-2.255902609637872903e-03
-1.015781788577010871e-03
1.894364442911880347e-04
4.627202942522744169e-04
9.045146945869585132e-04
1.842219400199304226e-03
2.016742657779699386e-03
1.535801533690330043e-03
2.475372236980858645e-04
-6.502186124968757641e-03
-7.019028105789156154e-03
-1.868834986741835366e-03
-1.589104799319468670e-04
2.687696178035368835e-03
2.420817014194058710e-03
7.917208318402284154e-04
3.391026686583097994e-04
1.294579803291461039e-03
2.763598731997521114e-03
2.595454316317870411e-03
1.291544758046557105e-03
-4.155773283672155620e-04
-1.095890196923619310e-03
-7.123626354158631765e-04
4.518587733311575975e-04
9.326053699343658885e-04
7.864514244200081130e-04
2.791471062534480320e-04
-8.478962117374020269e-04
-1.784521959210398677e-03
-2.269783542323833021e-03
-4.394652898785186661e-03
-5.596706956242441036e-03
-2.461629166108834053e-03
1.826207376509023875e-03
7.584240941919836955e-04
-3.366564009437330966e-03
-2.040183459620524033e-03
-5.160373567946414724e-04
2.535083096608446544e-03
3.420333742828738418e-03
3.422985967851199709e-03
2.517202496833712694e-03
1.611976476043454863e-03
1.663803468268413785e-03
2.928960727839832658e-03
3.334283771721682603e-03
2.078936226775516746e-03
-2.504725271183600387e-04
-3.410648227032916837e-03
-3.070918108730975350e-03
-4.411394198651050376e-03
-5.692615243995708015e-03
-3.714788245926989828e-03
-2.505196971295163121e-03
-4.365495031799533111e-03
9.830036847655515675e-06
1.410934732200841164e-03
2.774827440620456897e-03
3.782074958838253440e-03
5.045798889528363938e-03
3.638874291242136585e-03
3.421955071290098786e-03
4.317490227049853094e-03
4.530611472925559317e-03
3.194308391900547908e-03
-6.249986712935860485e-05
-5.503283209199401164e-03
-1.294565549959972653e-03
2.172722620998566458e-04
6.350529411426387473e-03
5.745673087486269717e-03
3.050396981459038964e-03
3.150095905680998839e-03
3.437010855487048714e-03
2.523717162430941068e-03
4.779994185326678566e-03
3.334014395861382464e-03
3.792420030417540788e-03
4.523132427144418814e-03
2.991057113984978231e-03
2.499189977567892271e-03
2.651233993972956261e-03
-9.055187006973871699e-04
2.927897697842513428e-03
6.260743645876205854e-03
-4.771379302901974408e-03
-8.245190478159823699e-03
3.440651858885485168e-03
8.871810494379008373e-04
-4.669623445468240770e-03
-7.472797523864972008e-03
-5.816656344758345913e-04
-3.632864454140668619e-03
-2.485830761111721028e-03
-7.356574065536158370e-03
-5.521968603089837981e-03
-1.187782115260186885e-02
-4.802689706442275948e-03
-1.445598611721641636e-03
-2.274487730597405874e-03
3.705214461412453027e-03
1.946304967446896945e-03
-1.390272707574672370e-03
-4.266104692067933940e-03
-4.641903169845701914e-03
-4.895607321628927221e-03
-7.792460712188592140e-03
-8.226334912843245514e-03
-8.512607886133413335e-03
-3.645569500417951848e-03
-2.920250061300930147e-03
-8.654801171842958427e-03
4.220347077076368018e-04
-9.979878641478972124e-04
-5.002661895858486179e-04
-1.318924532461385494e-03
-3.487115982461518656e-03
8.292088724824316320e-05
4.146570598354327487e-03
-9.149195700736856719e-04
-9.071652570944517720e-04
-1.074774635627633122e-03
-2.585262606483389181e-03
-3.326838010693286465e-03
-4.597265379516488233e-03
-5.980454563683755553e-03
-6.648508291052523250e-03
-6.547216959415527726e-03
-7.515300547306221976e-03
-5.789853210402273916e-03
-3.668123352093751854e-03
-6.277356837075183686e-04
4.973245871603859019e-04
-7.255000872380078930e-03
1.455141750443577362e-03
1.370481492909515504e-03
-1.077657877777039516e-02
-4.279907879255335536e-03
3.466194642955403461e-03
-8.931637944306608902e-05
-7.825009215107944218e-04
2.082184047473125202e-04
3.502764506378624803e-04
-7.808737720641484694e-04
-2.718286730391413029e-03
-4.016137521588609462e-03
-6.085471957762366227e-03
-5.865013328009092627e-03
-5.593724458925336540e-03
-4.304619976210681716e-03
-2.508818307536371701e-03
9.293832602422592360e-05
-3.446772725461587578e-04
-2.808357466571667627e-03
-6.937993080723651659e-03
-4.394904743633174828e-03
-9.079921186806822961e-03
-6.208114838897936180e-03
-1.084548388834579834e-03
-1.072895484395280105e-03
-6.501163102050541969e-04
-6.938162846268726208e-04
1.563124521938599699e-04
-7.535968444305283359e-05
2.850467598468067938e-04
-1.381649686882262425e-03
-4.108656870060259543e-03
-6.053730397898625729e-03
-6.493149640501260679e-03
-4.974806892431100393e-03
-3.472067005843167218e-03
-2.361691847111666367e-03
-8.493269078866379045e-04
1.260718763083335100e-03
1.273653198437256669e-03
-6.993928066470902300e-04
4.183373656772193701e-04
-2.374844000110560953e-03
-1.227679322388890290e-03
-3.847876446426605284e-04
-1.012950210429026075e-03
-6.203707868865093733e-03
-2.273732913898907169e-03
-2.300138411399455917e-03
-1.207440645368593798e-03
-1.255799207549358493e-03
-1.340685316176485698e-03
-2.018506151053072167e-03
-3.322412611102775869e-03
-3.561297780994481920e-03
-3.622312120394544522e-03
-3.361847780453303385e-03
-1.679997834344866114e-03
-4.031636976768444131e-04
1.011440512015914645e-03
2.988767027437599748e-03
4.399590583107468658e-03
4.489817145721735139e-03
2.862840059301269800e-03
1.341031428230499091e-04
-2.112512644419718092e-03
-3.544672759026560368e-03
-2.111383414031102902e-03
-4.136568996704374605e-03
-2.088793893100823144e-03
-3.052475912951445585e-03
-9.710140656224232640e-04
-1.233622219060857969e-03
-2.463614173902704992e-03
-2.395692905404727367e-03
-2.132673289407951891e-03
-1.813634188859479220e-03
-1.682230409162863583e-03
-1.453246862888175461e-03
-4.988723884190152981e-04
1.182338081975020314e-03
2.714983086456208318e-03
3.979811020124070578e-03
5.647087614915393197e-03
7.105572476902859320e-03
7.424101886608854700e-03
6.343973248884287458e-03
4.754744886107777416e-03
2.677651713561700255e-03
-3.339579390648573023e-03
-2.639584140535773497e-03
-2.600042987990832700e-03
-5.489351126772424976e-03
-1.005157811905385903e-02
-9.297634787871447704e-03
-3.446766768667348067e-03
-2.554890102299380104e-03
-2.617354232860876536e-03
-2.951766918326527434e-03
-2.784755328691372166e-03
-1.396843327748715580e-03
3.252460522815419524e-04
1.340002393532248532e-03
1.840916871441001124e-03
2.556457332858735627e-03
3.843525737494477793e-03
5.008967967159433723e-03
6.057990639241594630e-03
7.368209387432943062e-03
8.119932757391935471e-03
7.958040035061718712e-03
6.817243682427345276e-03
4.926056745415530354e-03
3.551302976753745698e-03
3.129437846948805897e-03
2.876037759760868926e-03
-2.405094405082636253e-03
-8.561086344151799810e-03
-8.218781363751448757e-03
-1.356864097131719495e-02
-3.433388899222939057e-03
-1.798112508720763796e-03
-1.404606739441132107e-03
-2.848796759228240400e-03
-2.372198158990069215e-03
-1.112984943161703978e-04
2.174664334741843383e-03
2.754423662893773928e-03
2.331429827053192304e-03
2.290363138058059463e-03
3.207497062792418526e-03
4.346745973739814424e-03
5.304701831260433091e-03
6.159988899440078762e-03
6.415002808641429369e-03
6.353093068857927801e-03
5.807961709528026983e-03
4.886645336363125945e-03
3.621837452946227113e-03
2.244278943089569704e-03
6.260596945299619614e-04
-1.043380410605576234e-03
-2.392626159678392598e-03
-5.750142128768656949e-03
-8.201616438019450686e-03
-1.399214211994635054e-02
-7.429657362768183650e-03
-1.431940511435225586e-03
-1.058130068217052674e-03
-1.579066733434820319e-03
-9.704778822860428075e-04
7.892636671383839331e-04
2.314649524690460571e-03
1.987462652818174254e-03
7.643756854123796027e-04
2.208657117378037512e-04
1.008986877275672373e-03
2.427130838991503441e-03
3.698551539101162158e-03
4.481217679978897854e-03
4.545769628782499877e-03
4.631772438258227598e-03
4.784061180523371468e-03
4.913123697273530724e-03
4.505461799186275852e-03
4.010840253728821699e-03
3.923515137133506622e-03
-4.123180972082395208e-03
-1.842518141208843467e-03
-2.901779307337761741e-03
-3.579525460404836719e-03
-6.343310750074836017e-03
-1.612226050946209297e-03
-8.334473927135561911e-04
4.371124457290332440e-04
4.526428188621990298e-04
7.472852671534282705e-04
1.089356584525736716e-03
1.647311718293816831e-03
1.319249613785521526e-03
3.274533086757951670e-04
-3.156452200059978262e-04
9.426858705620375155e-05
1.327888309815134209e-03
2.858660312825274646e-03
4.032638294514648628e-03
4.470599419351464592e-03
4.742159090594838186e-03
5.022870662254255367e-03
5.357128781564899668e-03
5.685954886968571514e-03
5.716398651138010836e-03
5.876421345147666252e-03
5.038205109691621698e-03
-5.900884021396176835e-03
-3.558236429465236154e-03
-2.974022726993919268e-03
-4.852836006389600783e-03
-5.880647031990459891e-03
3.275352532010940981e-04
-1.183419166336842744e-03
2.746770260040960060e-03
1.674653005705451425e-03
1.486533822876177089e-03
8.824765792363051730e-04
1.251988356541844111e-03
1.929141361866986348e-03
2.071263013919701166e-03
1.841626401106659025e-03
1.819362361932551136e-03
2.208252580490524964e-03
3.331449209681121206e-03
4.533885873219786061e-03
5.008961174416061597e-03
5.034960046719549019e-03
4.890185689345412368e-03
4.639750405711002765e-03
4.569233260135585617e-03
5.619895911986088829e-03
6.785869628096268501e-03
4.784734304142921474e-03
-2.071785008338460164e-03
-5.645390380040153991e-03
-2.788920970970581569e-03
-4.333573586531935286e-03
-3.098594505332283918e-03
-1.311153513530381211e-03
2.068628391296119511e-03
1.549791993602794675e-03
4.059736570873650531e-04
4.932842348170356911e-04
1.703017183061313262e-04
1.042641637460427293e-04
1.441462975503669287e-03
3.500271692704350155e-03
4.900933806705032314e-03
5.177923257634038309e-03
4.594093810564181361e-03
3.633213566412312173e-03
3.659194593303479424e-03
4.248914653595164438e-03
4.222667135091675954e-03
3.855057077960041909e-03
3.490207290011733757e-03
2.761037514957224905e-03
2.065068854035265449e-03
3.213080042180980166e-03
3.281384076842356733e-03
-1.585585823095588898e-03
-4.517787652068538592e-03
-2.267066879336892236e-03
-5.833437782265823643e-03
-4.370885884613457707e-03
-1.720145380340749311e-03
3.999764847419760502e-03
2.328483322928492655e-03
-1.015183142915403294e-04
-8.678153308744440252e-04
-1.231166493544889754e-03
-6.922766094955092086e-04
1.093301055863306467e-03
3.603372401383567094e-03
5.740847360237100010e-03
6.679537557115203077e-03
5.829030381655470050e-03
3.696462868290987039e-03
2.519278242659344236e-03
2.430333941816362978e-03
2.283346007520875749e-03
2.203545603920183723e-03
2.278282167063766864e-03
1.651302606558032859e-03
7.148791082288388386e-04
1.164127582761645407e-03
3.885593418718109784e-03
-9.121080105220191444e-04
-2.020058096517199538e-03
-1.279566279196280455e-03
-1.079397120936713720e-03
-1.043847654613221142e-03
-2.992629353290105192e-03
1.338834008017230660e-03
4.690309286982985264e-03
2.477814740855343711e-03
6.371886508403283664e-04
-5.569780407973648007e-04
-9.989576398880179765e-04
-8.114952452042406691e-04
-1.284057730008693430e-04
1.274402539178075451e-03
3.484120869212721169e-03
5.461498612542208322e-03
5.199852660589047472e-03
2.886745642132268821e-03
1.071977914086025404e-03
6.440250449882009912e-04
6.787759981685151335e-04
1.088889078545135459e-03
1.862454094356481979e-03
1.867148113300202451e-03
7.276129326811754412e-04
4.394690714039846163e-04
2.899110746604421397e-03
-1.932943242121085451e-03
-1.096058007772578819e-03
2.256683291897850451e-04
1.790823833644381805e-03
7.783704283757246663e-04
1.354045671907070194e-04
3.645502842776350561e-03
5.481142699853339822e-03
3.292226159922869745e-03
1.049993109844118326e-03
2.069242816787955630e-04
1.035930874748312343e-04
-3.399008772094879588e-04
-1.445939177798961136e-03
-2.042145091736489483e-03
-4.942149005704781980e-04
2.331324520510210090e-03
3.237721949552589597e-03
1.740375971018937084e-03
2.759254711429906136e-04
2.460344737596771689e-04
5.786513784191263431e-04
9.107963987654961674e-04
1.677279539984086578e-03
2.257648836955783445e-03
1.553955057949816696e-03
2.950804114810976495e-04
-2.660542856796673222e-03
1.703662033895731809e-03
4.233630127812660141e-03
5.338116279607695025e-03
2.174100635680984404e-03
1.791443207158809840e-03
6.664402481332340998e-03
6.762966271133453826e-03
2.717056969551047765e-03
2.450453000446516636e-04
4.862235992937532234e-04
1.374297043630745303e-03
8.087807182961507949e-04
-1.618710273032057233e-03
-3.955766112276877348e-03
-3.559134836694929742e-03
-8.730088563548446621e-04
6.904931796416769992e-04
1.450676326167647714e-04
-3.416269630748752046e-04
4.939727809178960692e-04
1.165999099789435858e-03
1.002288599378799681e-03
9.413411467617965617e-04
1.373166531169376595e-03
1.342016619782501058e-03
1.576111814861201567e-03
-2.425566345990563984e-03
-3.304854618297864812e-04
1.067141916925584905e-03
-5.703435613307625794e-03
-4.071370857963815815e-03
2.627419128108851414e-03
5.024239929808497346e-03
2.900069860063618759e-03
4.851767750545446506e-05
-1.036596741431403557e-03
1.522017641937277498e-04
1.990927834436525927e-03
1.940820243638139613e-03
-4.877983235024813753e-04
-3.378464998819024311e-03
-4.168283990876162429e-03
-2.621082218446766591e-03
-1.061086935167274928e-03
-7.382468370866271390e-04
-4.799187182356639994e-04
2.364825880585512798e-04
2.203508231518773518e-04
-6.319259281482494245e-04
-1.386162981919074290e-03
-1.449063635531593498e-03
-8.568981446086643789e-04
-3.812526658870859023e-03
-6.251346890819989462e-03
-6.236910179156797927e-03
-5.289622992402877658e-03
-1.970555177494769886e-03
8.014917901034903248e-04
9.217489552782005217e-04
1.178453539270822538e-03
-1.385858025996428112e-03
-1.838903886474864023e-03
-4.092662162688956223e-04
1.868736011750356729e-03
2.792861597589171505e-03
1.504774092797112831e-03
-9.095661205842634931e-04
-2.517880489872463892e-03
-2.186219309567505840e-03
-6.563152163430573810e-04
3.633302195461998838e-04
5.743623250597864075e-04
-8.310466260659286712e-05
-1.766467916405536605e-03
-3.410365272756689468e-03
-4.394721082134564645e-03
-4.490449473066446782e-03
-2.059769189721013562e-03
-7.309624604853728544e-03
-1.905320336409333827e-03
-6.190935907869031529e-03
-5.021348146654298211e-03
-6.519884887668320672e-04
5.340879577477895346e-04
-3.629935114196810577e-04
-1.882753253368929383e-03
-2.072854976239771590e-03
-6.415633392934385563e-04
1.719211425778701579e-03
3.586751430433359963e-03
3.731414612593669973e-03
2.247286390433112738e-03
5.258708989356083562e-04
3.353685194914850991e-04
2.005364561247017976e-03
3.331295867435008114e-03
2.924976329412538184e-03
7.783977527340151014e-04
-2.385975966175602446e-03
-4.803519694133539727e-03
-5.915550182327128544e-03
-5.626014790076956477e-03
-1.039059205118939705e-02
-3.503587569358401852e-03
-6.210825040384725625e-03
-4.759236077648568153e-03
-2.435563523626019678e-03
-2.241949500053267916e-03
-2.822926691769017844e-03
-2.623387085359123010e-03
-1.773063895607814326e-03
-2.505357776329107276e-04
1.825509414174518365e-03
3.917070934615303479e-03
5.014091185456421955e-03
4.350983028291133432e-03
2.801266067338292667e-03
2.376752740367082950e-03
3.928917959294477708e-03
5.170389384840124239e-03
4.166861610285005693e-03
1.356433563288804694e-03
-2.046793793909797588e-03
-4.512793034632413443e-03
-5.464702255307357821e-03
-2.570222680857986355e-03
-2.727460286627477522e-03
4.100621264459608983e-04
-3.687102425111227297e-03
-4.977276410841410467e-03
-3.767168477863713869e-03
-4.807165349542260116e-03
-3.765055226382685825e-03
-1.611153259140356243e-03
-5.651005498845583725e-04
8.458195539049707598e-04
2.473170490902779160e-03
4.185803693600891225e-03
5.449341546739510343e-03
5.046834538766016218e-03
3.221538780121312086e-03
1.984416013054285215e-03
2.592187405490020604e-03
3.426132403250411063e-03
2.566122248266090519e-03
4.624394141009775024e-04
-1.773737002894113608e-03
-3.317424285411969907e-03
-3.703283190695857031e-03
4.276434536184930621e-03
1.754732241172499022e-03
-3.273453744473474574e-03
-6.149189192722091975e-03
-5.314473405736618895e-03
-4.206016478479698492e-03
-1.284095586269461652e-03
1.438837368725478637e-03
2.961895814325271256e-03
4.249369941875691392e-03
5.041053465399774475e-03
5.385029925248870086e-03
4.691385722006944856e-03
2.471196782596161642e-03
5.145892958923096528e-04
1.094770313682236201e-04
3.972182639598424996e-04
-2.347167066775123658e-05
-9.603762020653205120e-04
-1.897051936932005146e-03
-3.256858198644127251e-03
-1.959754882234778471e-03
1.432751235866830094e-03
2.186635789754083018e-03
5.064409594828867336e-03
4.243646824944504424e-03
4.717545579616658560e-03
4.018656763170303653e-03
1.994904717948654555e-03
4.864169706097156332e-05
-8.949338525920503369e-04
-1.216976500198667680e-03
-1.460007035832085274e-03
-1.616971023290564389e-03
-1.904292281137459153e-03
-2.489464009599159835e-03
2.165059893207709613e-03
2.552702634052432962e-03
2.053865313941684919e-03
1.051303770981150626e-03
-2.147822919074873715e-06
-6.698737583590165089e-04
-9.466666670217044506e-04
-1.173722571610846853e-03
-1.269090435549399777e-03
-2.436184678287929822e-03
2.037147765886256328e-03
6.329430711181713168e-04
9.115985537683151752e-04
8.617779130136762314e-05
-3.503129601623235397e-04
-5.056979220768142557e-04
-9.144169452939233597e-04
5.526149956893958333e-03
4.444777081471378705e-03
2.465654967814174571e-04
-5.529149317633626562e-03
-6.914440273527478441e-03
-7.941410800186898822e-03
-1.531526375421254048e-03
2.131166682224231845e-03
-4.272499310590717990e-03
-9.162570706185105274e-03
-9.097557317668926793e-03
-1.592160428630102782e-03
-4.739610808598520610e-03
9.510542156791779514e-03
4.802936532933062426e-04
-4.022771127603136029e-03
-4.104331083916185757e-03
-5.638655212331957801e-03
-7.721445708245321289e-03
-1.156770600881624513e-02
-5.017253807297769597e-03
-7.185737352162992544e-03
6.600178180617584638e-04
3.930515825152689109e-03
6.760065250422510851e-03
-5.891970307721748970e-03
-2.787481411804520678e-03
-3.991416347612256055e-03
-4.794236218488418660e-03
7.700947645880569601e-04
-2.618430297830018610e-03
-1.749665506411276703e-03
-4.624944322278628020e-03
-3.212335111092838244e-03
-4.439945813591672161e-03
-5.885194207786856140e-03
-7.125061156457334309e-03
-8.978158974004116916e-03
-5.249172596514007326e-03
-5.788073625586296657e-03
-4.665203058467130154e-03
-2.909938286713226012e-03
-1.497035415491028377e-03
3.071846522312992808e-03
-4.923855661015563885e-03
-2.987609957135857128e-03
-5.584678618844213759e-03
-9.511607192989945253e-03
-2.017189727033122035e-03
5.810453273034420739e-03
3.200749891180584318e-03
1.078358492663030561e-03
5.688502708499613590e-04
-1.064332395910301803e-03
-2.165809566422400179e-03
-4.343216262412344028e-03
-6.599644900564815425e-03
-7.119873095276165083e-03
-6.905320754023371033e-03
-7.099773946417849667e-03
-6.298019086192945329e-03
-3.874566125230726691e-03
-1.414387548712289170e-03
-1.196822509708631585e-03
-5.796261248714171255e-03
-8.276188268126547301e-03
-1.005789751167308552e-02
-1.467640485314788881e-03
-6.237631892979333265e-03
-3.473144634173960256e-04
1.105264702338364666e-03
2.483990661594966034e-03
3.546706876009655604e-03
8.528935971351195300e-04
8.297612577721286608e-04
1.602210647905132556e-04
-4.665347425242664676e-04
-2.215933857817057196e-03
-4.289718181223476853e-03
-6.418843443945229134e-03
-7.543646283613155736e-03
-7.439402646262227234e-03
-5.870632456710194597e-03
-3.451843774431618671e-03
-2.314509218345433064e-03
-1.700613889648647844e-03
-4.421213799934417543e-03
-4.891547137262813524e-03
-4.731808121174474642e-03
-4.382213362832049382e-03
-2.883319109139120991e-03
3.300663947948361421e-03
9.584664651324521344e-04
-5.446971076152698835e-03
-1.834072572624230544e-03
1.063614813649202753e-03
1.754680018247908825e-03
1.642725754276764356e-03
5.948766849232889169e-04
1.278476473137166993e-03
8.713747284582414911e-04
4.926899088176137607e-04
-1.124730637138939915e-03
-3.659447964113023925e-03
-6.543227072408263831e-03
-7.913249008863152203e-03
-8.231353908362607635e-03
-6.617916719593230218e-03
-4.928790989252906755e-03
-4.510879663446524038e-03
-3.997948990863476638e-03
-3.585203982909690619e-03
-3.709461070363927193e-03
-2.550037933882923474e-03
-1.936010965687993924e-03
-8.205744769588668025e-03
-1.100485494926357470e-04
-3.594046664190666922e-03
-2.334015143341187058e-03
-5.870844706923427194e-04
-1.068725814938158592e-03
-1.211799897043198352e-03
-2.308149951059654866e-03
-1.635148281556678043e-03
-6.156633759351755851e-04
6.937801239139389665e-04
3.316161097578701283e-04
-1.457712825269188387e-03
-4.471533687202542892e-03
-7.055626438376925644e-03
-8.068544056230185849e-03
-7.697807370518006120e-03
-6.004047368541348684e-03
-5.073102649292344189e-03
-5.249360384178286196e-03
-4.519129861979533092e-03
-2.930282801299128811e-03
-1.324064497155235613e-03
-2.607955106404677621e-04
-9.959166017771829455e-05
-3.642666375442444194e-03
-5.505705141084667881e-03
-2.604243014171876355e-03
-2.709248932416946642e-03
1.171688662588223377e-03
-2.129379884214879521e-03
4.663986859636296239e-04
-1.642692031724124696e-03
-2.058336439752499625e-03
-2.265333775843698331e-03
-6.037672430474641614e-04
-5.516124759901021952e-04
-1.248857538611828667e-03
-2.836953762035748436e-03
-5.016849684026688030e-03
-6.373315717452169779e-03
-6.103501282684305543e-03
-4.546171042666073692e-03
-2.642119885043616584e-03
-1.892748041647844114e-03
-1.698788149142963291e-03
-7.935018305200249901e-04
4.695179692068138970e-04
1.559491525607481456e-03
1.832617374846769653e-03
1.238681442227274271e-03
3.207281426002258945e-04
-6.929546685116791394e-04
-2.435717051549191568e-03
-3.110135837216799776e-03
-4.539494569046362369e-04
-3.913998774119558516e-03
-1.312983989000498673e-03
-2.881876472000194801e-03
-2.411212728576911293e-03
-3.205482572654930803e-03
-2.100182676593577956e-03
-2.344548827491554997e-03
-2.602680283226962727e-03
-2.831994191003898466e-03
-3.042522545270817409e-03
-2.539516014029236449e-03
-1.146462609277219390e-03
1.001385874491839438e-03
2.737130289599336644e-03
3.424837685849380347e-03
3.930949830645103470e-03
4.306386469607082108e-03
4.064519403939896233e-03
3.487880282509125528e-03
2.895023144807738757e-03
1.843619803173341754e-03
1.526619797811707650e-03
6.949382364710287186e-04
5.876327565384576596e-03
-1.205790137769582621e-03
-1.886394645225208770e-03
-5.192165097333260697e-03
-5.533636398521923558e-03
-5.440306223922133227e-03
-2.677447560039467826e-03
-2.023630128145343949e-03
-2.631088954810633079e-03
-3.049831831061435190e-03
-3.061245905496000428e-03
-2.131867302040556592e-03
-7.490100929486455655e-04
3.928710892967157329e-04
1.640194544413956608e-03
3.057317935426991443e-03
4.794036516646576866e-03
5.915211119280874320e-03
6.201945488662788560e-03
6.335162140808127396e-03
5.926373613407596823e-03
4.787927139084936258e-03
3.210257131927437939e-03
1.802949060090613346e-03
7.114312572048369634e-04
9.896410493008615502e-05
6.659510095271421173e-04
4.706506140971332755e-03
-8.349418956818013653e-04
-3.289989710089325989e-03
-5.778289275903114412e-03
-6.382646880302450358e-03
-9.270120058526511511e-03
-2.373963796151948389e-03
-6.116143043755899612e-04
-2.652847541519536521e-03
-3.284178805473519924e-03
-2.921330154583280832e-03
-1.051159256008393815e-03
1.091547045367631747e-03
2.158177126857878207e-03
2.827710144135815035e-03
3.614492097812105169e-03
4.648615406061129204e-03
5.116621410750809250e-03
4.844369736319795346e-03
4.399672449799609322e-03
3.631291434230575141e-03
2.694149059557176314e-03
1.630180148629639583e-03
7.668820044727717427e-04
3.373438523555339036e-04
1.948540841348239737e-04
-1.502108806825037978e-04
9.302621649147722188e-04
-4.587849145274378211e-03
-1.693225236256605017e-03
-3.483686045560291378e-03
-6.158459946968918887e-03
-1.101136186851321697e-02
-1.202241931038162265e-02
-1.073848234207637952e-03
8.918253784529499208e-04
-1.831205863858936887e-03
-2.208125148678620649e-03
-1.852976481620793045e-03
-2.993100274859185491e-04
1.432893183013093799e-03
1.863870006187672446e-03
1.805854540754451816e-03
2.009887177562303100e-03
2.529405555409878874e-03
2.693269741761981570e-03
2.279565028588775334e-03
1.721024996785947220e-03
1.214358748676211538e-03
1.122353439821138473e-03
1.420969495906435499e-03
1.999958854442769173e-03
2.423599537298247800e-03
2.198579505804549271e-03
2.187540884105487141e-03
1.209001000564657391e-03
2.727058540460016670e-03
-3.014666649290646035e-03
-2.876990079599130081e-03
-4.112474353300643592e-03
-6.032174034462135792e-03
-7.440258219614668406e-03
2.133130857994971520e-03
5.887919364149786202e-04
-1.775578201792990236e-04
-2.478837324516699656e-04
-5.116671052504959735e-04
-1.745306119957473713e-04
9.548199734876257772e-04
1.501225001004897032e-03
1.415645768237847350e-03
1.109877582084573249e-03
9.490202627305520128e-04
8.145275292949477174e-04
7.849367334743249719e-04
1.025024306140100714e-03
1.438582160704909114e-03
2.092086406380911940e-03
3.006988026794691401e-03
4.031855260944430114e-03
4.611823340934226301e-03
4.469521629590553907e-03
4.023019136686612623e-03
3.626006223470064696e-03
4.340638122759130080e-03
-8.939960465071751560e-04
-5.781674466666701477e-03
-2.725305312236522576e-03
-2.775602754661908654e-04
-5.753999667100970911e-03
-1.561081920251106842e-03
3.680272552719666967e-03
6.855793511544825162e-04
2.076189424133286204e-03
6.113290674968431581e-04
-4.048824268877244058e-04
-7.994346431554661845e-04
4.948427665506426260e-04
2.050921183376883377e-03
2.681821107724482144e-03
2.264647462647945836e-03
1.414584180519124369e-03
5.546074551126702447e-04
6.222128829525142967e-04
1.572961646935840075e-03
2.424711010981779255e-03
2.958887995583765924e-03
3.528115559264516279e-03
4.071502432333192964e-03
4.419102281251616887e-03
4.418245126982349447e-03
3.838248898728516354e-03
4.099557557176710353e-03
5.516172397902745217e-03
-2.244354434534928926e-03
-4.879594920732183323e-03
-7.890835612568105522e-04
-2.821621434125296327e-03
-2.856789879672255381e-03
-4.367761289418240628e-04
2.760929668995739522e-03
1.029302493356019617e-03
-1.637900280641148092e-04
-1.087315731710582906e-03
-2.196622142866118312e-03
-1.938432231056796441e-03
3.671710958433656454e-04
3.109745745591646713e-03
4.645237587856113591e-03
4.458297660107189350e-03
3.007921096326353783e-03
1.118164873700642483e-03
7.170159318435458942e-04
1.646036487773324146e-03
2.177933078187130334e-03
2.226809326439591237e-03
2.499397088978725853e-03
2.742223347824254438e-03
2.787349341038354404e-03
2.838076471506315902e-03
2.746607092459984415e-03
4.016208257145495279e-03
-6.340044008242880095e-04
-3.568922858368419725e-03
-7.566658792281983920e-04
-9.403418145791037422e-04
-3.645971828592173194e-03
6.967070248202332939e-04
1.131533484855711024e-03
6.113402194475542426e-04
-1.634232611282289329e-03
-3.145477379653957833e-03
-3.799609077320709096e-03
-2.722979253569100117e-03
-1.449302987344328172e-04
2.678290911299109796e-03
4.605113347739042511e-03
4.913279392416337703e-03
3.325831786896975110e-03
8.303389939071598256e-04
-1.681503679765189129e-05
6.743373664354967512e-04
1.203944098357747705e-03
1.484722625985328628e-03
2.029418578567094254e-03
2.399884708696820544e-03
2.118059981467608835e-03
1.758737181107482977e-03
2.643572717596384507e-03
3.131599342350624513e-03
-3.091931336884660921e-04
2.203753408481860018e-03
-3.355268227527451966e-03
-3.736278846610634023e-03
2.693947226474751201e-03
-1.495294062296188484e-03
2.954483470705995384e-03
3.616889108342884011e-03
1.224389574431767984e-03
-1.954029330539918709e-03
-3.511320277938019454e-03
-3.509021677752729561e-03
-2.366174703308460917e-03
-9.435713053598930068e-04
5.438043136868374100e-04
2.293892229462648168e-03
3.458910874922822062e-03
2.488215980091099209e-03
1.495433997100687558e-04
-9.148336638696167103e-04
-4.168040999801357182e-04
3.797498994198722109e-04
1.204691836908793707e-03
2.287421195265522920e-03
2.998051550776847148e-03
2.430358896356102274e-03
1.309799957470569355e-03
1.171983741040817173e-03
2.379005764752565536e-03
-1.311581032833816643e-03
-7.526625048020699075e-04
-1.217382730546883981e-03
2.538142340697647570e-04
2.544766932682987655e-03
2.713026483484966365e-03
-1.415584484850490599e-03
4.506717912635098064e-03
2.693044520516532560e-03
9.419384421473951056e-04
-2.111326540552310987e-03
-2.775061395023022213e-03
-1.823578365230816038e-03
-9.929824315937983530e-04
-1.318779665555760636e-03
-1.839324344106889287e-03
-7.564402676980633029e-04
1.237599190860834116e-03
1.322522360962529418e-03
-3.968966000620809055e-04
-1.451257928292176268e-03
-9.702256086862609151e-04
-3.750271591106230086e-06
8.719985370066394821e-04
1.993640602203022773e-03
2.939096342849537372e-03
2.543165638833860820e-03
1.136790376068982531e-03
1.252993955180792469e-04
9.268654872455974088e-04
-2.729865265004548518e-04
-7.391156530750183674e-05
1.032427314869977788e-03
7.817018153643126230e-03
6.909639249657878110e-03
3.625045633342220165e-03
-5.562421135669774145e-04
6.424995281499228626e-03
3.802306988069955370e-03
7.347189839284134442e-04
-2.744391094484651111e-03
-1.949189304582070979e-03
2.322864709748741229e-04
1.130728392349805971e-03
-3.520316248099984355e-04
-2.518051082734925131e-03
-2.573135141557967871e-03
-7.482379437056692860e-04
-1.121805855436808978e-04
-1.136707419286701317e-03
-1.753317713166918212e-03
-9.700536290815014269e-04
6.014146346094122056e-05
4.181617932460937668e-04
7.246712871840738047e-04
1.193683199980736468e-03
9.604942239214964671e-04
-6.529262258975591113e-05
-7.907767716689694795e-04
1.064064364942870176e-03
-3.472660177017947202e-04
-1.468960292898486338e-03
2.922300084486950493e-03
2.527357306003740183e-03
-2.495685712198222796e-03
-1.066944951551026134e-03
3.611290833132475408e-03
3.535713109862044165e-03
1.849952955514220024e-03
-1.570308080311605316e-03
-3.120452596076287843e-03
-1.446034466251971832e-03
1.454198159315988432e-03
2.806727830918551592e-03
1.393602321927497542e-03
-1.306024708053267090e-03
-2.619203954748559361e-03
-1.989321757422894861e-03
-1.279462859310339555e-03
-1.271806474277944066e-03
-1.110918903012835532e-03
-5.038136538395941028e-04
-3.028835253070856384e-04
-8.573387263471969307e-04
-1.435964098055084745e-03
-1.779107921223204748e-03
-2.275488637606460675e-03
-3.635524834433944905e-03
-3.192837283918006312e-03
-2.984281661994679213e-03
-5.452993432961752117e-03
-4.621723609161951241e-03
-6.418234633339610015e-03
-6.512273514786328862e-03
-2.048766685229411828e-04
2.333247314351480275e-03
2.014403573459788883e-03
7.645553221960968296e-04
-2.004626721411359273e-03
-2.779491190337225835e-03
-1.059530608342868201e-03
1.720976096784692386e-03
3.530945513877129828e-03
3.014887661926455870e-03
7.734978308047635786e-04
-1.329106016250562999e-03
-1.894472945886586631e-03
-1.072408739936127299e-03
2.618746172548820137e-05
7.497075054435016787e-04
5.558652669028244994e-04
-7.244508779917186803e-04
-2.302883321335816823e-03
-3.375423901550746175e-03
-3.871031353360425593e-03
-4.145701908820418995e-03
-4.013829893832755215e-03
9.805387155662804739e-04
3.034146105260130625e-03
-3.366085262510068801e-03
-3.977306404504303214e-03
-6.646689658479108809e-03
-2.483123043373377213e-03
1.423774326713601274e-05
3.005772777838724616e-04
-1.069479974269918129e-03
-2.370478128233888867e-03
-2.081499469860794479e-03
-4.687061871016580546e-04
1.779823566512136936e-03
3.653648106871772942e-03
3.902994722023684238e-03
2.437034183345492249e-03
4.257434755096193841e-04
-3.999542753537039218e-04
8.129408031727110165e-04
2.570396277266922495e-03
3.329172114758140524e-03
2.448225288208088091e-03
1.686280652259016508e-04
-2.263203006984047545e-03
-3.761782658981337787e-03
-3.939031129462772923e-03
-3.329437053866465303e-03
-3.248375098998155554e-03
4.779650239419380893e-03
-1.161194462351044978e-03
-6.229769904042294602e-04
-3.080712236882795704e-03
-2.390769323492374435e-03
-2.577713000914159513e-03
-2.744961419485423149e-03
-3.131031477377844117e-03
-2.675765372355366680e-03
-1.155027244186957206e-03
5.752167294518398906e-04
2.164363825005625758e-03
3.403958531899882543e-03
3.651415703144131764e-03
2.605447680202819735e-03
1.036028785913080744e-03
5.284599188900890223e-04
2.121423540524264989e-03
4.035048171141570814e-03
4.383543982043919436e-03
3.071980699115714735e-03
6.804481658165984631e-04
-1.841860991837272537e-03
-3.333426851402136737e-03
-3.148250156250050665e-03
-1.122422957707332799e-03
1.673406520151483629e-03
6.166592838777036796e-03
3.305725006344887532e-03
-1.381015035019068189e-04
-1.169008058873802886e-04
-3.569645973320408842e-03
-5.395191665411764453e-03
-5.034778892414317093e-03
-4.006094495326557522e-03
-2.076304637784896247e-03
1.890643287151127648e-04
1.949740898768183512e-03
2.983955891666411221e-03
3.315072856478033965e-03
3.010719822985311218e-03
1.879527834559508066e-03
2.838811075834362881e-04
-4.572971775947428492e-04
6.450730087783013503e-04
2.103711477922526937e-03
2.273049805236695541e-03
1.306566089707723345e-03
-2.994892550972846641e-04
-2.032285666187357877e-03
-2.888787519443640744e-03
-2.296373234390927665e-03
-6.855921302064059376e-04
4.216935633803020264e-03
6.651625869276463730e-03
5.444604626348647017e-03
7.099295473547267412e-04
-5.075289976235491940e-03
-7.290253184240574197e-03
-6.126626190499533282e-03
-3.728203746298877110e-03
-8.411601941079124454e-04
1.623165110630055445e-03
3.214096210287529197e-03
3.947697302632766948e-03
3.713792324320907418e-03
2.895009742552457060e-03
1.481209632330767866e-03
-4.743049156646608928e-04
-1.784270101056569056e-03
-1.542082902515699936e-03
-7.875479269193164621e-04
-6.912569984063083759e-04
-1.136620465131939336e-03
-1.967420891571210629e-03
-3.052791011666310724e-03
-3.332398227241680205e-03
-2.180608067360438520e-03
-2.538572679141994602e-03
3.986334515866017669e-03
5.246187646687968179e-03
1.465224329391898953e-03
-3.480191608298072170e-03
-6.373503790856671798e-03
-6.024783036414949750e-03
-4.608810173065166008e-03
-6.560727334820356908e-04
1.861302099361690108e-03
2.584400692476576233e-03
3.907936311598442236e-03
3.801284718911663967e-03
3.287805807625564063e-03
2.233347365580666977e-03
3.984231264231526712e-04
-1.153080522277990074e-03
-1.592751280138638087e-03
-1.691745444634119161e-03
-2.025944634729816458e-03
-2.406080747540770715e-03
-3.102461726871486546e-03
-4.345887047153001656e-03
-5.417911673169358011e-03
-4.188498496067327541e-03
7.053717353136875791e-03
7.438982719769416177e-04
-5.538522085257311343e-03
-7.719334686911479525e-03
-5.507520217761346405e-03
-2.702765982758643763e-03
-9.064889642673715155e-05
1.496340653564364170e-03
2.156031971979199477e-03
2.357715347568143782e-03
2.540238794292263690e-03
2.381130134914959812e-03
1.333865034530996386e-03
1.203667474289486951e-04
-3.786566620337386492e-04
-9.313593179240147900e-04
-1.791247887878583307e-03
-2.597224443195770855e-03
-4.769079632107807790e-03
-6.019076298143570536e-03
-6.325935686663183323e-03
-4.757921364027309190e-03
-3.843550263647241890e-03
-2.919141231291936655e-03
-1.281711971833856608e-05
6.913948433706125106e-04
1.232765857654982439e-03
1.033630258744231995e-03
2.494637984137772647e-04
-2.630637449559392331e-04
-1.025821830145540745e-03
-2.134268510049077555e-03
-3.211798567399106082e-03
-5.291167993251340816e-03
-6.202489158546462683e-03
-1.796421764060846579e-03
-1.048265530905766012e-03
-2.821144279999286057e-04
-1.271580311038839249e-05
-6.264496731619176523e-04
-1.376686032250129662e-03
-2.143661474360458296e-03
-2.659640234059817109e-03
-4.057281522337468672e-03
-1.728094731592633593e-03
-1.768461625686051399e-03
-2.112522349940938130e-03
-1.304643399226056372e-03
-1.238120863666305896e-03
-1.681141130652799272e-03
-2.035805155454739265e-03
-1.475973242326455992e-03
-1.355501015620628547e-03
-3.919324715630342383e-03
-4.236995067668804932e-03
-3.302246726736039403e-03
-1.920197149111560562e-03
-1.462946892665736810e-03
-1.153417980431221783e-03
2.660488645864010192e-04
-5.752842980815658924e-03
-6.988794234575932893e-03
-5.205800916031750464e-03
-2.524392429124171396e-03
-8.468754547177624386e-04
2.629044665563885232e-04
-6.337586095683114297e-03
-7.550391939519551614e-03
-5.267139699026267101e-03
-2.726189110893287564e-03
1.604288137165049005e-03
-6.162918103007126351e-04
-7.942149008766108409e-03
-1.367147508755110590e-02
-9.937983335675505681e-03
-7.332012934231894700e-03
-2.934365431034433383e-03
-9.005744644821088440e-03
-1.751280343307871088e-03
-3.459961247014790137e-04
1.726206254668166424e-03
-2.068597442121112434e-03
-3.067762532716868367e-03
-6.185039679782193892e-03
-2.865971903302204447e-03
2.866286462585818616e-03
3.142960223378815209e-03
5.451201016278607071e-03
-3.495740408984146248e-03
-1.140797887689178058e-02
-1.362728772890617725e-03
-2.740786067877081390e-03
-5.930188692504202719e-03
-6.119535714726509479e-03
2.800832745310489168e-03
-3.166573613333846602e-03
-1.947269750809919398e-03
2.813309311612798556e-04
-2.874561160943057362e-03
-4.519145639069892077e-03
-4.750886788191615445e-03
-1.336462983974637513e-03
-7.272151444692672578e-03
-4.266099246518367111e-03
-4.064669759034427246e-03
1.076769135453259493e-03
3.840848632023446604e-03
2.834289834720834806e-03
-6.079274544876280342e-03
-1.673856518235636954e-04
4.888607432352205795e-04
-2.846110503204880762e-03
-3.929647055572935664e-03
-5.048653793055067965e-03
-4.259681770120558007e-03
-2.936966112083042556e-03
-4.438368667326415308e-03
-5.225079792140679968e-03
-4.495761774143933014e-03
-3.237412296266182869e-03
-4.401591797865118429e-03
-4.600792884264607099e-03
-3.960368836703127490e-03
-2.101619726073809954e-04
2.114340175995321649e-04
-2.244358547160765164e-03
-4.185086351379150790e-03
6.792029496160264992e-04
8.019931993218289840e-03
7.939527836702211031e-03
6.186235223736793847e-03
-8.569974914508211947e-04
1.177541169219176344e-04
-2.337280771912828969e-03
-1.846995431777340374e-03
-1.665444304257315388e-03
-2.614485809754937308e-03
-3.693645148422823685e-03
-4.237135942225306838e-03
-4.538636909390663006e-03
-6.162281300233742737e-03
-7.547469539433893614e-03
-7.289296958227412145e-03
-5.932992064861160493e-03
-5.159370727928959226e-03
-5.085439273803228979e-03
-3.246159843386338395e-03
-1.625259369438903072e-03
1.157128144073862105e-03
-1.974876233324098732e-03
-3.490269137123854643e-03
1.772423559951460600e-03
-6.329346601653468816e-03
3.920747009789700768e-03
8.202350069313458364e-03
9.856463995442033693e-03
4.930721770986469001e-03
4.794140823285854974e-03
1.007992643338085151e-03
-7.738571006837556207e-03
-3.654327163401137530e-04
-3.077445414168141456e-03
-1.648107957767164298e-04
-1.578581704479637944e-03
-1.748458591949505082e-03
-1.921858126843711129e-03
-2.330053932888962592e-03
-3.397681355666889221e-03
-5.534790487302791370e-03
-8.641303415817560424e-03
-9.448426323570069396e-03
-7.950400491946181536e-03
-7.285345124720923188e-03
-6.228640733208105906e-03
-3.888069301413409930e-03
-2.107216643032512084e-03
-7.642380338084885441e-04
-2.871866616052329204e-03
-5.236422241709067817e-03
-6.427376316041948957e-03
-3.803466047240392292e-03
1.814237248995712298e-03
5.721694846457701066e-03
9.670311278307794139e-04
6.487797889377891654e-03
4.333788076114300503e-03
1.872509837903375222e-03
1.813908383657303119e-03
-2.668995456492690398e-03
-1.145279006293704535e-02
6.457676891525098405e-03
-8.883828114988092913e-04
-2.556409901465381881e-03
-1.939682248129328147e-03
-1.720576911212443960e-03
-1.175497485556767493e-03
-1.046313842798288511e-03
-2.064397158353531610e-03
-4.330336521430195630e-03
-7.195547046375614340e-03
-7.796563718735931292e-03
-7.964871850828298544e-03
-7.576794868637529504e-03
-5.825446798740853589e-03
-3.653037080784746985e-03
-2.524145936656376366e-03
-2.461000758437480000e-03
-3.490783770819140194e-03
-5.353238327811489505e-03
-5.592508736340332832e-03
-3.932800215635271109e-03
-1.482278894754920397e-03
-3.077198449318997980e-03
1.465710038032843644e-03
1.719836658028787903e-03
7.070375316123377963e-04
-6.976084055205211947e-04
-2.545980745852384074e-04
-2.990040277935953131e-03
-3.370057150245278979e-03
3.567942361101743287e-03
-3.232527741172333807e-03
-4.297291878370944514e-03
-2.975625972828583286e-03
-1.445206031948966354e-03
-2.305427671127536387e-04
5.467857151955850909e-04
-2.736508168679472846e-05
-2.232391184178205475e-03
-5.326392667523668391e-03
-7.491016137130616405e-03
-8.253081425495514475e-03
-8.027950653690069799e-03
-6.349929247262764767e-03
-4.925425961052528126e-03
-4.774117369877256024e-03
-4.669960381418146976e-03
-4.416880403282905099e-03
-4.505314188825853237e-03
-3.587750675623567736e-03
-2.083367440436582636e-03
6.351094464522288310e-04
-8.385589573736999466e-03
1.423163096962110508e-03
8.237063451954371261e-04
1.574242934691706252e-04
9.555654729305933313e-05
-2.532203926677999758e-03
1.108106722737372749e-03
2.534597672375272408e-04
-5.237935001847041604e-03
-5.325713962747931005e-03
-3.358946443030037376e-03
-1.719655198497315645e-03
7.059074167814992622e-05
9.063061388664653707e-04
3.084062814134457160e-04
-2.156272279329540711e-03
-5.620813244715440297e-03
-8.078532975783581788e-03
-8.851090697234210297e-03
-8.348050000124750125e-03
-6.694749905824628686e-03
-5.892880238912008746e-03
-6.132524834844550569e-03
-5.670524608659236430e-03
-4.441686499406934455e-03
-3.022038867001052877e-03
-1.613491970263432199e-03
-1.325866446747977134e-03
-2.753398040760007999e-03
-3.462198054910085691e-03
-6.940644661228389904e-03
-5.687289763716712153e-03
-3.209483346206723400e-03
-9.485088302610125352e-04
-5.651752901733194095e-04
1.067928900673584567e-04
5.937921394037425603e-04
7.545413676605081154e-04
-3.560348067144567322e-03
-2.783288291984826589e-03
-1.853901099384098637e-03
-7.120107986315167212e-04
-4.894916278210076311e-04
-1.360280995687745530e-03
-3.574575428942978333e-03
-6.236915039404764168e-03
-7.685141238139932621e-03
-7.632326635319782934e-03
-6.355501035840942572e-03
-4.537103500273713744e-03
-3.796844444387497026e-03
-3.723498143975124356e-03
-3.189130151321268539e-03
-2.428752421794999703e-03
-1.693651131311675953e-03
-1.093982716737003152e-03
-1.419009802986863572e-03
-3.083723046591098187e-03
-2.984492924466169029e-03
-3.597511806262877494e-03
1.487789804191317483e-03
-4.384391196832977504e-03
-1.049968663555723471e-03
4.861064025352569012e-03
-4.001861832346383444e-03
8.368272263605249991e-04
-1.684097553350750271e-03
-2.382148977772613474e-03
-2.456201629744246204e-03
-2.213862616312115960e-03
-2.494247468469014233e-03
-3.068174120959533523e-03
-3.890864479163512642e-03
-4.494602756515030627e-03
-4.097574009971294284e-03
-3.074039896394605009e-03
-1.319637578299199566e-03
3.215650823890104921e-04
8.755927003454508101e-04
9.421008979758238762e-04
8.115099725807842180e-04
9.370450313853967070e-05
-7.979016379145879639e-04
-1.486943704178415567e-03
-2.387486174572741975e-03
-3.551068701774414728e-03
-3.055454558152228845e-03
-2.311379619041850891e-03
2.013168420431695610e-03
-9.519106543161367931e-04
-7.047698895119671771e-04
-1.236310594436928513e-03
-3.523810972084301558e-03
-1.735796539223023608e-04
-6.555375523077088809e-04
-2.233952795726109556e-03
-2.886594521390066677e-03
-3.219106811112094815e-03
-3.485093448540598632e-03
-3.139769895422072580e-03
-2.337648746190342051e-03
-1.354489230956117682e-03
5.093208035061844489e-05
1.262180665566300757e-03
2.618610334526161928e-03
3.515120508111540740e-03
3.443241248953139884e-03
2.942445186426627737e-03
2.052058382546191606e-03
5.337271351102053666e-04
-1.247560302929625383e-03
-2.649519265933617061e-03
-3.500329409646998988e-03
-3.541467351299060554e-03
-2.336584477664710793e-03
-1.144167543899106713e-03
5.963444363784158866e-04
-2.268347566349532794e-03
-2.606239750021329977e-03
-2.142056772902530427e-03
-8.127846236842772160e-03
-5.503368929342430937e-03
-1.878088431097544361e-03
-2.518830598788283828e-03
-3.062998832196530373e-03
-3.690155924166904113e-03
-3.756897197830499305e-03
-2.556048101118988183e-03
-7.926843770711568390e-04
4.947260163925992120e-04
1.750292294836772698e-03
2.650545967874237165e-03
3.202375192113179458e-03
3.010725182257464883e-03
2.022504664370538240e-03
9.259110834596727315e-04
-9.245745344195366202e-05
-1.187916688370705938e-03
-2.278079607086370452e-03
-2.769905532486446886e-03
-2.441450617492959066e-03
-1.458114495062984252e-03
-1.096788276664844642e-04
1.204497377050260586e-05
-4.047758379004673390e-04
-1.507877610440064081e-03
-3.891075205936074533e-03
-6.992642012793567723e-03
-9.934686059718608395e-03
-7.146534780606084505e-03
6.419795574052000004e-04
-1.250743668648941678e-03
-2.227429962198328346e-03
-2.920894670413424262e-03
-3.225813146541018153e-03
-2.136198291340688296e-03
-2.629649024505239488e-04
8.541880006993410584e-04
1.680964185006194895e-03
2.214208874984966921e-03
2.112099619754542919e-03
1.100321700429095608e-03
-4.545258786983201091e-04
-1.651054993270425434e-03
-2.098651001357180416e-03
-1.974536624774781216e-03
-1.381019344154980595e-03
-7.918031196127298717e-05
1.398051481861705900e-03
2.358387483003877329e-03
2.255463935209305049e-03
2.189684764841911060e-03
2.400955549890247188e-04
2.481671707169494801e-03
-2.268745583107042649e-03
-4.032779794218388329e-03
-3.424205357759439738e-03
-6.884758119549345620e-03
-6.952650849752409386e-03
1.101669103704563816e-03
-3.328414907340965408e-04
-3.567682675606616521e-04
-1.156903415457722836e-03
-2.354769587576465827e-03
-2.176805309114047265e-03
-3.621112760476943903e-04
1.089432339750311205e-03
1.787713813804365278e-03
1.723550826847983436e-03
8.913544087400527812e-04
-5.774078644940340262e-04
-1.827432816751369806e-03
-2.114880165754340346e-03
-1.498053370594861497e-03
-4.425743013887012086e-04
9.859773444406494738e-04
2.833344175458845163e-03
4.180947984599715957e-03
4.348271246317488015e-03
3.250318451335613285e-03
2.880129351716219886e-03
2.844086369387512341e-03
3.377923645590677829e-04
-4.762026986173599312e-04
-2.630823772086918720e-03
-1.904811586775001378e-03
-6.893511958769660622e-04
-4.632086726155885091e-03
-2.423079033336386894e-03
3.536681588054749279e-03
-5.607016234669809883e-04
6.345783246683395305e-04
-6.737373206978553063e-04
-2.637554670261755673e-03
-2.820978502849111769e-03
-5.279668570772760600e-04
1.834102491276613355e-03
2.877505150061804382e-03
2.410846385053847657e-03
8.828264727057898425e-04
-1.120562036125620367e-03
-1.964861252592316025e-03
-1.237745763590836125e-03
-7.089066700070768433e-05
8.762282618025496374e-04
1.945338879647472282e-03
3.114536142497108077e-03
3.680059551197403540e-03
3.443641935646583972e-03
2.783044015872225552e-03
2.762815049816846891e-03
2.441428360992633616e-03
-1.383119896718350977e-03
-3.141842500877407851e-03
4.922250963062385892e-04
2.808923387284707621e-04
-3.664551079707191201e-03
-2.583395320157146503e-03
3.077192043454281701e-03
1.409278038287995957e-03
-5.801134294303701092e-04
-2.530876728764996312e-03
-4.240754339742284010e-03
-3.574295518954719378e-03
-4.619177009015770145e-04
2.668906416401481407e-03
4.186935974766300798e-03
3.721415438713655734e-03
1.771047415795209880e-03
-7.435482456559603260e-04
-1.537599634989865981e-03
-4.958308266788565011e-04
4.408593848469984414e-04
8.327399709801943436e-04
1.432649923078643719e-03
2.004661948756585044e-03
1.931384855012852802e-03
1.588808942052719834e-03
1.463587816302966763e-03
2.949654939452779363e-03
3.598650254171761875e-03
-3.762523277753797432e-04
-1.261643217487814226e-03
-4.153581511662987960e-03
9.067147711525889216e-04
2.604619203824003106e-04
-5.387398507237069895e-03
-5.983946802095072405e-04
2.655868437195582285e-03
4.852565205007072498e-04
-2.576089278619219432e-03
-4.707608521837269855e-03
-5.444909159068840078e-03
-3.879119196007817065e-03
-8.234459266231747981e-04
1.970793131777271150e-03
3.557229143121376589e-03
3.479256031143522672e-03
1.699949407270997387e-03
-8.028507107027906984e-04
-1.535060909160901712e-03
-5.546804830907930582e-04
3.219281333947834173e-04
7.801270117042706162e-04
1.432986144012753571e-03
1.989105301670596616e-03
1.696597603123344445e-03
1.064051230687036199e-03
8.809638247222795248e-04
2.416634949325957224e-03
4.483553591700333192e-03
5.136877727402473087e-03
-5.201074848288116592e-04
-3.571011881856315151e-05
-3.012835271072072506e-03
-1.527535945666580420e-03
2.579466251094817992e-03
-4.182691701503270069e-03
3.828693770216901309e-03
5.180001788694692071e-03
-1.249443980440502369e-04
-3.747821509237860785e-03
-5.417991846755087527e-03
-5.074494296337705816e-03
-3.298982185635201004e-03
-1.332521024415068197e-03
2.003721121211280137e-04
1.531851330526325366e-03
2.130156868536943558e-03
9.555382447319220362e-04
-1.221946786192329134e-03
-1.978924949954483092e-03
-1.187470565523047377e-03
-9.517000795030162975e-05
8.698718387012930198e-04
1.982405798875835727e-03
2.860520179587072720e-03
2.592135321998020013e-03
1.566065050438175286e-03
8.296400302380387221e-04
2.072561347093053626e-03
3.953948205428565316e-03
-7.347351972085344740e-04
-5.709261570516941612e-04
-4.990410476815259179e-04
1.252983613299251276e-03
2.704186486314664887e-04
2.135001481222149455e-04
-5.383656194489780736e-03
4.349192726780432700e-03
2.291610993041451067e-03
-9.220441795980075916e-04
-3.970118482409469921e-03
-4.449588749427788037e-03
-3.073764929381375341e-03
-1.522639991760889452e-03
-9.716418287099282385e-04
-9.998579191556433536e-04
-1.967280859763297519e-04
1.005027390555264912e-03
4.997883058102806694e-04
-1.392585980226449926e-03
-2.400048503679047367e-03
-1.928041654031020877e-03
-7.604931143531170343e-04
4.535993971697934780e-04
1.840131664910954262e-03
2.959578308836505450e-03
2.895871925518087465e-03
1.796589988553748971e-03
6.887131005112212849e-04
1.419030687086651407e-03
3.272758678972680774e-03
5.139382331223027369e-04
-5.603334199991046038e-04
-3.866641070590460865e-04
1.149729059469071536e-03
4.110259919429518419e-03
1.329737783964460079e-03
1.711501121927254355e-03
-7.228454231026172139e-05
5.388241194775080824e-03
1.958141138854898114e-03
-6.905255525894825200e-04
-3.581718814753024824e-03
-2.676010993539158864e-03
-2.782755537119634614e-04
1.382366912526365125e-03
1.091338933247908930e-03
-2.465554947627795470e-04
-5.224512223271473091e-04
2.541190124877914787e-04
-8.275115637287636604e-05
-1.527798463958626642e-03
-2.371336316451654307e-03
-1.963972644956114583e-03
-9.190651005864428720e-04
-8.865645480546504404e-05
7.413447657939928976e-04
1.367699990914763653e-03
1.208266349728940843e-03
3.464900434686436943e-04
-4.967042749196941536e-04
-8.295029783323912016e-04
1.572624552116066738e-03
1.496134953167631287e-03
1.647502619279539232e-03
-6.939467474532310092e-04
-1.902760270365954319e-03
4.889264667271271160e-03
2.158960646914239757e-03
-3.411997554008977095e-03
-5.179068689741196012e-04
4.372956656245239465e-03
3.930747266114502890e-03
1.510238055295507441e-03
-1.428751020336840741e-03
-2.544951550830293428e-03
-9.423947186119969923e-04
1.877785594026161898e-03
3.766402239724572082e-03
3.372208760234025274e-03
1.440528478877772887e-03
-1.801987665197221102e-05
-4.329199245739737308e-04
-8.169227503937064646e-04
-1.224465014394948009e-03
-1.206062347266695150e-03
-7.888838864577847696e-04
-3.613172181671665123e-04
-4.262877057237569054e-04
-6.090845394468240954e-04
-9.676581613806513934e-04
-1.700799666563438143e-03
-2.360717964863195441e-03
-2.632797427958633897e-03
-3.217670732586714981e-03
-2.819483631605693434e-04
1.051207140663436811e-03
-1.614901331145096120e-03
-1.631985480843214497e-03
-1.581798438527471425e-03
-4.708190977044996242e-03
-5.838090583530154525e-03
2.009506171567018717e-03
4.023010917590089455e-03
2.913920651816282337e-03
9.642722875643886015e-04
-1.098972366745055692e-03
-1.347295945613343360e-03
2.879436186107790069e-04
2.714692828894299439e-03
4.459634371677208622e-03
4.293109106277359990e-03
2.544435146363027006e-03
5.441471755210856550e-04
-6.922067359748377202e-04
-8.448466569154940153e-04
-7.920560959680331831e-05
8.630466739887762652e-04
1.185802392573633880e-03
7.894020336358768819e-04
-2.252867205281200761e-04
-1.278859447023483580e-03
-2.083773204167222760e-03
-2.879197923557338251e-03
-3.337879668111048449e-03
-3.462482051121879532e-03
-4.392081332510604057e-03
-1.278667901733181330e-04
3.712028413400774688e-04
4.029812705476041104e-03
6.319879710055392556e-03
-6.472038062505654358e-06
-4.034779751543049638e-03
-6.965821824951063702e-03
-6.678819314298501840e-04
-6.178095965946784783e-04
-3.577578822197120893e-05
-9.827101883643249262e-04
-1.379598956684759299e-03
-5.546666054156403547e-04
9.615536738227883386e-04
2.599883217844097677e-03
3.687909692206434165e-03
3.485964688065239150e-03
2.187111427095482074e-03
5.085121430331872089e-04
-5.140744156977779559e-04
-2.672955179232016352e-05
1.463205330556091588e-03
2.759946026686111321e-03
3.039647465792238903e-03
2.269128348721072882e-03
6.713802100468034767e-04
-8.968299241429035073e-04
-1.589013608990995667e-03
-1.804015169636294770e-03
-1.780029783289022432e-03
-2.554724764119654674e-03
-2.636025543048654395e-03
2.036668856883724291e-03
1.027272888821854045e-02
5.605551876937509871e-03
-2.588661837266398975e-05
-3.488773746232341137e-04
-3.676626605057513753e-03
-2.486771826602114481e-03
-2.869670255494992731e-03
-3.097034415310417812e-03
-2.865817018698027172e-03
-1.561795378282821887e-03
3.071810102097349252e-04
1.845351200893691288e-03
2.627897583607394314e-03
2.598277894024531454e-03
1.759181951026654415e-03
4.813641344863756706e-04
-7.050940376939694417e-04
-9.992412078458513119e-04
2.411672642407087716e-04
1.990212097443304611e-03
2.955566722205617107e-03
2.864875841534179381e-03
1.966650796703522507e-03
4.366721056340511849e-04
-8.645634273448957402e-04
-1.089931620263169965e-03
-7.592277757732752768e-04
-3.224875618808941248e-04
1.368056850986327881e-04
8.333786755509210026e-03
6.544635559838065698e-03
2.230948878599662167e-03
2.081235910160269978e-04
-1.135214715702927753e-03
-4.489914281641940036e-03
-4.696713248881891588e-03
-4.669418599668524739e-03
-3.203144654561509378e-03
-8.239609010789578601e-04
1.505567123823207303e-03
3.013277524041989026e-03
3.209605181978820825e-03
2.207115338059183456e-03
6.094790284159544956e-04
-1.034009930453926593e-03
-2.239050863703918089e-03
-2.322779249864610415e-03
-1.000362608004602910e-03
5.033547830548730246e-04
1.119358393419499220e-03
9.448664299120488209e-04
3.060248875948195385e-04
-6.849093551155163500e-04
-1.310522506691891298e-03
-1.070285673873742644e-03
-6.497947251038347022e-04
-3.023314099717318315e-04
-8.535398951802125372e-05
4.254146435289773293e-03
6.360633462931808424e-03
3.562587450944100509e-03
2.872814039442524777e-03
-8.233561098922895184e-04
-3.347062527483880400e-03
-5.346813667682015318e-03
-4.940378111019315746e-03
-2.653051231442334068e-03
1.506126340550344156e-04
2.429335802335208169e-03
3.873852662879684848e-03
4.020399645462925317e-03
2.786723805783441772e-03
9.568837916598095994e-04
-9.258301998756911840e-04
-2.455083467519624842e-03
-2.744537908307562429e-03
-1.697358727386231265e-03
-6.460579381744283468e-04
-3.929643307015954351e-04
-6.465050315672189090e-04
-1.195026165728187975e-03
-2.128571846323494901e-03
-2.623620800195653347e-03
-2.105074833493677036e-03
-1.411026524708196284e-03
-3.808080491205563783e-03
3.762527998534912627e-03
3.956955458139566062e-03
3.545778380239064925e-03
1.970316561120711695e-03
-1.283734875420627832e-03
-4.143288741177465935e-03
-6.171368048538911598e-03
-5.699497996256704287e-03
-3.011455315348084139e-03
4.332260915657173180e-05
2.275856954005367038e-03
3.710453851626045133e-03
4.148876472308285490e-03
3.410503610828664184e-03
2.258627897643854677e-03
1.030457381042669453e-03
-2.643616412537236359e-04
-6.705773507101202334e-04
-4.705614360827091647e-05
2.125924939050025900e-04
-3.299398570757271893e-04
-1.103626575865444001e-03
-2.173737358620344163e-03
-3.840411589520117790e-03
-4.800785408708351139e-03
-4.062442165169852931e-03
-3.147049143612187534e-03
-6.531744765418528173e-04
5.947221288892097675e-03
3.756238825495927976e-03
3.022317534930184409e-03
-7.387380049317017082e-04
-3.995422722335761727e-03
-6.850928716439900514e-03
-6.712597065284369759e-03
-4.104065839572039985e-03
-9.385527058398682653e-04
1.198197175885033772e-03
2.337125722541236270e-03
2.667799855885476419e-03
2.308123590659984497e-03
2.086795519544184380e-03
2.142451833841969942e-03
1.817769246445698596e-03
1.618255401031661739e-03
1.890074435198377603e-03
1.345756403000441213e-03
-5.520250286709993458e-05
-1.568518933616487804e-03
-3.384632644374298109e-03
-5.716090487795683246e-03
-6.886383314701986086e-03
-7.053547630427601037e-03
-4.653438713246176722e-03
4.824043395898897947e-03
5.730759414410104523e-03
2.357232837854553436e-03
-4.088408383911509326e-03
-6.147066214756490010e-03
-6.130174240069650310e-03
-4.481346678841800248e-03
-1.711256813744049549e-03
-3.504839305975370438e-05
3.451012229948618895e-04
-3.371166982849858108e-06
-3.627975557850573974e-04
-6.982349603103612298e-05
8.109876799317939115e-04
1.312424752044653517e-03
1.356697707030643041e-03
1.318210177727186265e-03
4.095245899695843395e-04
-9.990529404821678946e-04
-2.346713199940366618e-03
-3.933152997982933795e-03
-6.075280176250170451e-03
-7.113631872466696579e-03
-6.205251862173300804e-03
-5.731193359927683889e-03
-7.273181269541151642e-03
-4.258436385075306703e-03
-2.428407330254889022e-03
-9.787085399332268263e-04
-7.373056580835605853e-06
-1.256868406106716142e-03
-2.052006127689723260e-03
-2.044658235132538852e-03
-1.266829520063104259e-03
-6.497315149338378287e-04
-5.832686306928328793e-04
-8.122252670638903946e-04
-1.408543976047181611e-03
-1.629011828630815744e-03
-1.413720213155683029e-03
-1.706976245812408212e-03
-3.525173156447620500e-05
5.282153811556753375e-04
-1.862716126279027971e-03
-2.938062506281344504e-03
-2.730754233539661301e-03
-1.984465162355762875e-03
-1.585805560223238703e-03
-1.667148268786474005e-03
-1.754691819112749046e-03
-6.717332896189355919e-04
1.148064030523769999e-03
1.875775822085661362e-03
2.820128313212846480e-04
-1.817003822955668649e-03
1.122995401726637962e-03
1.033610864864035117e-03
-1.423150945749654785e-03
-4.048610509070271410e-03
-4.349775122044608963e-03
-3.269824783925910899e-03
-2.127580260664212880e-03
-1.761995437214495652e-03
-1.518219337062498694e-03
1.470990935084268950e-04
2.613676197521843606e-03
3.769552986556921458e-03
2.664411813354367574e-03
-7.275309292628030951e-04
-6.894939218916969941e-04
-2.338009278516029084e-03
-5.497588760384304434e-03
-6.282605827751296459e-03
-4.933453820081588545e-03
-2.920290819599556491e-03
-1.756789368287045095e-03
-1.127314430714911574e-03
4.090304472242256486e-04
2.612750016171941012e-03
3.940044871207793592e-03
-4.521808870217436729e-03
-1.949071869445217781e-03
-2.939036777302497880e-03
-5.914734966798512392e-03
-6.985278302579577860e-03
-5.507052936246646310e-03
-2.885274919385163225e-03
-8.291881924487084620e-04
2.206967267409238578e-04
9.029094493902638501e-04
-5.337715066034080802e-03
-3.073659128345513324e-03
-3.941374620258491362e-03
-5.722133892605152893e-03
-6.499620069249988780e-03
-4.770863048555074211e-03
-1.817036584730706951e-03
7.410876557547480025e-04
1.922070131245724690e-03
-3.698973085134105426e-03
-3.795973297723259469e-03
-5.307934367885811487e-03
-6.032157681975452469e-03
-6.605838080626907222e-03
-3.865855073730083309e-03
-2.500123487793501050e-04
1.477798004141854830e-03
-5.763358533531917974e-03
-6.710745790674436245e-03
-6.129577904790416837e-03
-4.517204743453013920e-03
-2.774321034574893461e-03
-8.831951181824081176e-03
-2.972667967841938555e-03
2.524516172052672543e-03
-1.459159568462558079e-03
-7.398767674851444362e-03
-6.603185275871869750e-03
-9.329313467820777445e-03
-3.719951583182908635e-03
-4.748619901975672901e-03
7.995298554554084369e-04
2.887018621746104130e-03
-3.250031679239225643e-03
2.896276603082714989e-03
8.952690711756723999e-03
3.428259042845992286e-03
1.993263031274122507e-03
-1.168760911179213269e-03
-2.797358397993211093e-03
-4.237544547165698373e-03
-7.238257272259907872e-03
-5.032926455350235882e-03
-5.341913123808622425e-03
-3.876967298522361171e-03
-9.864184412092807594e-03
-7.966437269230162294e-03
-5.353866358202263517e-03
-4.007846996430836951e-03
-1.006597116710763150e-02
1.182430059901490608e-03
2.264884853919492402e-03
2.051782608654497721e-03
-8.437800800347076231e-04
-1.489836238592180976e-03
-8.542065209960637145e-04
-3.084033935925362731e-03
-3.936897456877445564e-03
-2.618970324380799544e-03
-4.438471026778558360e-04
-2.470492491519078824e-03
-4.813881052724146986e-03
-3.828010916756522438e-03
-5.838995991885208119e-03
-6.089876657130199357e-03
1.065156029142078553e-03
2.767057727298458288e-03
8.958337787992215126e-03
8.438278828993717867e-03
2.201110461868553431e-03
-3.872471466144409256e-03
-3.581299699757828966e-03
-6.130908219242590246e-03
-2.501146306009736312e-03
-3.075597471311248068e-03
4.788413135852537706e-04
-1.216916842131928822e-03
-2.436513802543853816e-03
-2.554771120297213115e-03
-2.467923543025803048e-03
-2.957714416274512866e-03
-2.129813282419575505e-03
-5.383144560092803814e-04
5.110594062604113396e-05
-5.497634269182096476e-04
-1.524209216583148879e-03
-2.562633959904748928e-03
-2.116304802876313017e-03
-7.071590685879404047e-04
2.644870620898278658e-03
-6.951870054756405541e-04
3.034658090864214320e-05
6.851077289285213961e-04
1.081752108293746427e-02
1.124483510370606794e-02
1.049528956182139636e-02
2.769283329465538172e-03
2.104208441395243750e-04
-3.347814411574189398e-03
-6.789473032498518495e-03
-3.510102168753434157e-03
-9.970996011773022372e-05
-7.443045480814157770e-05
-1.836289966159003126e-03
-3.452175129228457397e-03
-4.308558454681829172e-03
-4.412796880935991768e-03
-4.773689588858338190e-03
-3.919071099233104039e-03
-3.131526898184462931e-03
-2.593433693892632178e-03
-2.024100214037812245e-03
-2.778043425261341338e-03
-3.132692152251390170e-03
-2.384447901555446225e-03
-8.320104526190521535e-04
-1.114452546660906580e-03
1.146639492517699446e-03
2.005693063242350391e-03
-3.721961446346964573e-05
-1.270491500247822444e-03
-5.576050333586971344e-03
1.245876828812389481e-02
8.029894000287578215e-03
9.722605333611050726e-03
6.053604898395290208e-03
8.155340611355991077e-04
-1.319941265927072069e-03
8.291540868418240389e-05
-3.863450723705593625e-05
-2.052312898868115503e-04
-1.918463220366669816e-03
-2.598066085973761534e-03
-3.468686714144204181e-03
-4.735480787748297393e-03
-5.582845648171193276e-03
-5.262794948128493577e-03
-4.425962303791854818e-03
-4.847319299739220530e-03
-5.679085288043950186e-03
-6.676352068787310030e-03
-6.794354478977286498e-03
-6.592007725498230490e-03
-5.482884251517871135e-03
-2.956546763093643830e-03
-1.794120033364455255e-03
-3.605596937821708070e-04
-4.177490811081474619e-04
-1.907894831384519211e-03
-3.672120670569684921e-03
-1.088438454021260857e-03
-3.933359408339533181e-03
-1.362925568991610673e-02
5.118508887358428835e-03
1.012812762132024244e-02
8.703223426843998897e-03
4.429258968351749634e-03
2.713958535163454172e-03
4.366047252573617581e-04
-1.585149736239405702e-03
-1.445366136557561278e-03
-3.002269322547551286e-03
-4.816553746027124952e-03
-2.870512661162006630e-03
-3.169606806200536610e-03
-4.772205143803091680e-03
-5.046240117276933404e-03
-4.750656178382353829e-03
-4.110516161558025461e-03
-4.471445876317980961e-03
-5.299222140021233457e-03
-7.052443140136576208e-03
-7.773285809623314141e-03
-7.664451753366119564e-03
-6.378977609446147279e-03
-5.013899478479770175e-03
-2.691564529705024224e-03
-1.592123106579884867e-03
-1.808542785631688833e-03
-3.091826186680946519e-03
-4.330811366735447081e-03
-6.727137387730588308e-03
-5.167067947936781168e-03
-3.401905471164287480e-03
-2.872701942484811623e-03
-3.109396022824101932e-03
3.170429519079719528e-04
5.149995490095232720e-03
6.606077886842620303e-03
4.666206995591201494e-03
2.443394381624930650e-03
2.744943149130124604e-03
2.608030104090498596e-04
9.522618237080514292e-05
-3.741783893611131100e-03
-3.530301057527515749e-03
-3.294190873873841571e-03
-4.798298861547223640e-03
-6.692074133090189156e-03
-6.011777037876255350e-03
-5.134872807398630987e-03
-2.944010120462088164e-03
-1.894220361496426822e-03
-2.193065035624904621e-03
-4.080083487290808372e-03
-6.189290989819675945e-03
-7.034634947958567225e-03
-6.835427542695398859e-03
-6.045388209390285990e-03
-4.377121748286028936e-03
-2.812804857842405096e-03
-2.495509435057103546e-03
-2.955965468278945636e-03
-3.841919127910917164e-03
-5.087852803754342075e-03
-6.154252482521670002e-03
-5.232570520566940005e-03
-4.790733679144972175e-03
-4.719129692972116180e-03
-7.086294328647083432e-03
-3.064950191553386313e-03
-8.962736236441175243e-04
1.042720439167182673e-03
5.182829522295696184e-03
9.487430387939259097e-04
1.661310481924566053e-03
3.468968095211046737e-03
2.369994489408605326e-04
1.720998270666357929e-04
-1.668469154765201204e-03
-1.736604063485890472e-03
-5.132885392293962297e-03
-5.679185636266974660e-03
-5.038165322463608597e-03
-3.173716486954533157e-03
-1.024604624529587256e-03
3.142134277514041572e-04
-4.813265706102696524e-05
-2.210922222275959505e-03
-4.887496893646087540e-03
-6.342158891044796624e-03
-6.407923226338979941e-03
-5.783283843647467164e-03
-4.594693454522848566e-03
-4.013839523907254334e-03
-4.280399913765062583e-03
-4.305178077176496747e-03
-4.000261100384452234e-03
-3.822232881403406484e-03
-4.190975877617261411e-03
-3.842078136568200832e-03
-4.699611664175040726e-03
-8.230724056857739029e-03
-8.582424603797204898e-03
-1.639950527813518848e-03
-1.956345777006966106e-03
2.255756279412600949e-03
2.524930356871084216e-03
9.684089874339249114e-04
2.115165478111918993e-03
3.435628579458901467e-03
3.682996220884922779e-03
5.511992698868881449e-03
3.170611184005773988e-03
-3.924677000588459841e-04
-4.065476273825747826e-03
-5.073518516547435853e-03
-3.845702404234567582e-03
-2.124653085660480663e-03
-1.559759411920916944e-04
9.341580696250376516e-04
4.205627844992533494e-04
-2.097757796304035305e-03
-5.319817682283786882e-03
-7.369523484859708158e-03
-7.856608907173039114e-03
-7.415178519238811369e-03
-6.430048793800402854e-03
-6.202292293965841127e-03
-6.262160730731551779e-03
-5.445681963191483128e-03
-4.274346826763779882e-03
-3.412216439733641461e-03
-2.948284861771077910e-03
-3.008945373059335876e-03
-4.954153768280119413e-03
-7.593951795387752883e-03
-1.027922088770772367e-02
-8.227405004628806154e-03
-1.405539805312797270e-03
2.291230346612115585e-04
1.142157132085648823e-03
1.674168503535378725e-03
2.199333849872876865e-03
5.223655001516839397e-03
4.999159609349286722e-03
5.042468275870981044e-03
2.086836048273836217e-03
1.271188917290519123e-04
-3.095155609001605263e-03
-2.527710598837513718e-03
-1.820687204990279395e-03
-9.122724000327222214e-04
-6.588200505941207551e-04
-1.432705177548013664e-03
-3.742947709163739825e-03
-6.497187948446908438e-03
-8.139336947442055853e-03
-8.532015058769402971e-03
-7.923996686260077402e-03
-6.769060845210309214e-03
-6.222624522795482636e-03
-5.787838747399883313e-03
-4.820813909755768296e-03
-4.030037922090401632e-03
-3.772835973748757833e-03
-3.987267153605630887e-03
-4.565345297166755779e-03
-6.109933564940395363e-03
-7.134183944915462386e-03
-6.500576061382314259e-03
-5.054223571006545047e-03
-4.042877880908689152e-03
4.490201281175042430e-04
-4.861076588504882178e-04
-4.271648386469257055e-03
-1.787204597198337576e-03
-8.453785782259151020e-04
3.198765650106452293e-03
2.777777283900532360e-03
1.671590410193681897e-03
-6.841272980926161066e-04
-1.835319321751946887e-03
-2.103886451432351260e-03
-2.292254424165731264e-03
-2.824663556648692245e-03
-3.560591453947870282e-03
-4.687188673055500340e-03
-5.641149510299312171e-03
-5.781598586041412219e-03
-5.622633243725794899e-03
-4.824882163133726969e-03
-3.753434099304518972e-03
-3.330539315109876108e-03
-3.176349812675971843e-03
-2.994130880985748991e-03
-3.372325080722615893e-03
-4.186207379715439596e-03
-5.200850496226433993e-03
-6.093710485407578294e-03
-6.505244005520587763e-03
-5.719853661846165983e-03
-3.451258710670068817e-03
-7.230341885326998716e-04
-4.279292784367868911e-03
-3.016239009257321783e-04
9.417957547678741138e-04
2.043926990183750477e-04
-3.403736901691606343e-04
-3.776954484849877352e-05
-6.064403229956667534e-04
-1.590489435115054282e-03
-2.335521255616316433e-03
-3.116443687648063482e-03
-3.882661869567220238e-03
-4.107899171426516137e-03
-3.820321695913982043e-03
-3.149045717324818524e-03
-2.178810627445014990e-03
-1.810493142814763746e-03
-1.362154850766295489e-03
-8.984889184190657544e-04
-1.101563726635584450e-03
-1.658671449628869744e-03
-2.259614632165641950e-03
-3.253316262728743729e-03
-4.443666546367032975e-03
-5.396599292081169334e-03
-5.753420750551091305e-03
-5.229813640206392063e-03
-3.376458754516328473e-03
-6.591300333692866765e-04
2.267606566838341157e-03
-2.014819916287657886e-03
-1.347894719197948246e-03
-1.606339157529169644e-03
-2.197443499953254456e-03
-4.839989311061161474e-03
-9.890494843866142437e-04
-1.246318628560335240e-03
-1.628113091574135037e-03
-2.579940672798163286e-03
-3.537056843530163915e-03
-4.158378954411726634e-03
-3.694255783157772595e-03
-2.438021811842511904e-03
-1.207159405563649687e-03
-5.582893818777163325e-05
2.768760559852890060e-04
1.183221735918235971e-04
-4.082262574868369509e-04
-1.457884072858517616e-03
-2.483747387670507800e-03
-3.128270453001338533e-03
-3.721822135724434360e-03
-4.145297913218421067e-03
-3.703007090740696120e-03
-2.366346142288179143e-03
-7.384066844500912670e-04
9.045996637481797543e-04
2.112717533666372011e-03
2.498822232184587898e-03
-7.266230503837096000e-04
-1.431003093209038063e-03
-3.630254257629225538e-03
-3.493113407808558571e-03
-7.046492672949740757e-03
-4.409712961933040694e-03
-3.275380655384259169e-04
-1.095292761842683003e-03
-2.007858232595057316e-03
-2.996274443093169954e-03
-3.866856257602040072e-03
-3.334879037025871747e-03
-1.624445115122954758e-03
-1.976345489412701241e-04
8.662323364531338910e-04
1.134669378318125133e-03
4.618877053122249837e-04
-9.642662411030666295e-04
-2.624685263065479855e-03
-3.681836909046352913e-03
-3.802953704126911267e-03
-3.389798716820458750e-03
-2.403239160242212017e-03
-1.999217805644435786e-04
2.385390937612266726e-03
3.821160838266882652e-03
3.846394255726456012e-03
3.364748162459002719e-03
1.788271079045459329e-03
4.237658586601598400e-04
-1.856580917396590804e-03
-2.549035589214388060e-03
-1.718752296796929088e-03
-6.213212441005071945e-03
-5.286167405742214602e-03
2.279089620176162363e-03
3.740381439047951295e-04
-3.193665073930650818e-04
-1.516924435249565346e-03
-3.320714026254152282e-03
-3.405842914691609852e-03
-1.368255965215049892e-03
5.324015212946768593e-04
1.579084233185886529e-03
1.530388162243539064e-03
3.213855646898596918e-04
-1.666802581102804328e-03
-3.210816512114900417e-03
-3.544336505794798333e-03
-2.889781407234518797e-03
-1.846747033404486787e-03
-2.816314770032931074e-04
2.220523366839127939e-03
4.302892581172720193e-03
4.588945728654429852e-03
3.485155680645313746e-03
2.575497930631877926e-03
8.714539301951198299e-04
-4.877971756568608478e-04
-7.409159805599149252e-04
-3.200976162518926176e-03
-3.842789933247435594e-03
-3.520308550792553698e-03
-1.799771163144531011e-03
2.565354512626731153e-03
1.284275290546535702e-03
5.569634984022770775e-04
-1.244972590654521392e-03
-3.635272270730862797e-03
-3.751253393881829462e-03
-1.127321828872129275e-03
1.458949772761179448e-03
2.699697574422531277e-03
2.408149837628559449e-03
7.550609392231397978e-04
-1.661809643365713771e-03
-2.885652840911968366e-03
-2.396616446341176109e-03
-1.391977271048538837e-03
-5.972439203804171849e-04
4.638413527371183700e-04
1.954907225103332761e-03
2.713364511329947795e-03
2.350405180877522884e-03
1.530789788656215919e-03
9.899256763797185162e-04
8.164591784350681098e-04
1.238945403868099747e-03
1.168033873331979396e-03
-1.283466882308033959e-03
-2.235786338655378503e-03
-1.343820292984824246e-04
-7.393723604206920656e-04
-4.701981058163366527e-03
-4.126281220171644677e-03
9.639475840726266813e-04
1.123962489907699095e-03
-4.486718401245834409e-04
-2.738922093611760675e-03
-4.597299485424265891e-03
-3.820429640794848793e-03
-6.865727645095761819e-04
2.240075226907785322e-03
3.702319442363110474e-03
3.425687028748052726e-03
1.617590339150307577e-03
-9.487953787935313708e-04
-1.991310115131407488e-03
-1.252778781067300645e-03
-5.064098010970111922e-04
-2.245847870604893496e-04
3.054137359811312210e-04
8.753402582181728144e-04
6.210836950855431896e-04
3.195381217580020258e-05
-2.009576053918860701e-04
3.210889652752490272e-04
1.585660144577849496e-03
3.221258222029363058e-03
5.665029222073570715e-03
-1.064239303759981063e-04
-1.228501573805742403e-03
2.211194290236262634e-03
-5.848421208990198759e-04
-6.170465155703445774e-03
-2.128201376517495271e-03
1.275420923628229220e-03
2.128622363740659328e-04
-2.268680880512985356e-03
-4.387503308604041689e-03
-5.155352186991959441e-03
-3.706456693451422053e-03
-9.390287049520040612e-04
1.459568580275351921e-03
2.880471891149447971e-03
2.958623889218825378e-03
1.540329360825239049e-03
-7.273481888036925722e-04
-1.630598782708545360e-03
-9.774251403925123677e-04
-3.324945675922898647e-04
-2.971179928346454581e-05
5.038589269584511183e-04
9.369941189726799279e-04
4.374475142770235152e-04
-4.263837334898763266e-04
-7.795349414568719009e-04
1.287950063241416390e-04
2.213029658009882297e-03
4.330414041518281312e-03
6.689889146449550482e-03
-4.046803566358666665e-05
-1.042722595838818222e-03
-9.483493982619503517e-04
7.603598213122414722e-04
1.443829897611235329e-03
-6.464702704558486328e-03
1.710769462419224878e-03
1.427653928795798817e-03
-9.482834253839514393e-04
-3.699124680114488847e-03
-5.092783596415359840e-03
-4.900829179630166420e-03
-3.416167734116902586e-03
-1.550399309078480739e-03
-1.364101693669377245e-05
1.262856190639358167e-03
1.844265901000789049e-03
9.255997247170324104e-04
-1.145328792290790845e-03
-2.200580418585542253e-03
-1.770336329138863692e-03
-9.110153080628500145e-04
-1.007351099584619764e-04
9.369314828045808251e-04
1.800634222435188933e-03
1.612059795762351517e-03
6.574427068320426015e-04
-1.110042933760440763e-04
4.167293687316539486e-04
3.410849701942304281e-03
6.052417341072876579e-03
6.507179893726758486e-03
-3.240277411129831634e-04
-1.047813118340174985e-03
-2.049208565413756459e-03
-8.068440863554030007e-04
1.527156666817345914e-03
-1.598263524325268690e-03
-3.911906806880173504e-03
2.717074399620683211e-03
9.401214507716554964e-04
-1.577589921623376908e-03
-3.666404764372602383e-03
-4.026698599200037240e-03
-3.149204044774604229e-03
-1.928760774848973679e-03
-9.609001573929783083e-04
-3.220799029870863263e-04
5.779933377420468478e-04
1.411423652093312048e-03
7.485895647864168785e-04
-1.318164045689547339e-03
-2.692288244410538395e-03
-2.589360636503874533e-03
-1.611900459336271805e-03
-3.769932640678018594e-04
1.138914415982655208e-03
2.356741248003558532e-03
2.564787772901859931e-03
1.818059284790599648e-03
7.477111817192165760e-04
4.521233477856791290e-04
1.814124507976208915e-03
4.629187430770084419e-03
0.000000000000000000e+00
-5.302825347310365523e-04
-2.688960694908349401e-03
-3.463951107972555320e-04
2.692160997525322626e-03
3.348763043897285481e-04
-9.102973183570229427e-04
5.372093664544402240e-04
2.128908105754322936e-03
6.546783537962998830e-04
-1.148431027620827822e-03
-2.246991191103234198e-03
-1.668191408670704557e-03
-1.950587205990726421e-04
1.083777879114714796e-03
1.545779318803932852e-03
1.259390801083939406e-03
1.168855451407601513e-03
1.289860686144243297e-03
4.202687056767413342e-04
-1.269373699766434540e-03
-2.331289367165803681e-03
-2.217288355945094564e-03
-1.294921658083469321e-03
-2.567247982886918271e-04
9.334687621005752613e-04
1.767771416758007240e-03
1.909684748131703974e-03
1.370239980749025921e-03
3.143993116454264617e-04
-5.548936580667418201e-04
-5.430793523160239254e-04
-6.200525584119133404e-04
1.375955064072857800e-03
2.655743868871442582e-03
-1.364123881767122443e-04
8.517608913050812988e-04
2.348686882955505588e-03
1.175257433523917800e-03
-6.818758785258745249e-04
7.083475921356705875e-04
3.388065577965660140e-03
2.819152956133458548e-03
1.651219383659571121e-03
2.644257622512600396e-04
-1.012258018046421790e-04
8.724533893820794533e-04
2.461238176172318628e-03
3.726745811845496702e-03
3.870034582220039168e-03
2.911373004447939065e-03
1.797284817752564353e-03
8.198572890250656071e-04
-2.198980274937542361e-04
-8.778374555730083725e-04
-9.044908101669012126e-04
-4.613622469577314915e-04
2.186511267634624021e-04
4.882175008883405613e-04
5.647559182399020930e-04
3.738037638567083803e-04
-5.411103035382919556e-05
-5.197823562948650222e-04
-1.285625785256425731e-03
-2.333427637476892785e-03
-2.264316128198726966e-03
1.747301408834983595e-03
1.842527791205049448e-03
-7.654055215488793145e-04
4.864400313139710837e-03
4.480928421737536728e-03
-3.232227600622798302e-03
-3.268255346686824506e-03
1.394037373151372963e-03
1.962128516809408252e-03
2.248108651727195179e-03
1.529190452569760897e-03
1.093201892537629116e-03
1.523176649323184631e-03
2.528431563318972886e-03
3.686528095347694264e-03
4.481719831899767283e-03
4.258644245536511927e-03
3.112025252742288937e-03
1.617468626475815829e-03
2.089745648132292359e-04
-4.760633498556261171e-04
-1.918816619143284846e-05
9.008665317268515181e-04
1.585200854040042179e-03
1.937121382882730494e-03
1.375953010253921265e-03
2.664040009451095837e-04
-6.468881751788090441e-04
-1.293314820535086110e-03
-1.777235325992540093e-03
-2.663583948655580489e-03
-4.061262919776887845e-03
-2.644875669306270653e-03
1.718608729523010302e-03
-8.517702102157990443e-04
3.729476062509570235e-03
6.909402923010141660e-03
-4.021756542542515283e-04
-2.728166895485483259e-03
-3.452809530331177670e-03
-1.651920409928089818e-03
-1.057920823068323087e-03
-3.926566069995700357e-04
-2.607854103165023777e-04
6.831746151678634148e-04
1.974317816858827280e-03
2.921320746118877439e-03
3.403327361014361462e-03
3.311235141543626258e-03
2.550065617075140782e-03
1.542133125093993759e-03
4.053204097308683493e-04
-5.165402161254059946e-04
-4.670856717782240902e-04
5.742147305084056939e-04
1.735784185077125482e-03
2.438825954009694527e-03
2.622743534871024070e-03
1.714646406993026746e-03
2.213920932759027595e-04
-6.710109113291644637e-04
-1.091171157212676192e-03
-1.606692364960663312e-03
-2.885440253519075491e-03
-4.105027217607693825e-03
-5.098013387089000807e-03
2.981577593869143544e-03
4.384042791593465577e-03
6.810560663279562575e-03
7.364560901358181699e-03
-3.482234926301395789e-04
1.798123815713992930e-04
-4.265477702844836308e-03
-2.620038270959277032e-03
-2.753088517386309900e-03
-2.680334292337631028e-03
-1.738673607136696428e-03
2.980768106634536663e-04
2.174248041559825179e-03
3.069301743754648988e-03
2.802901438106258306e-03
1.595191443761550002e-03
5.488678159514552752e-05
-1.051629026494663773e-03
-1.731260657832240594e-03
-1.857241718975703769e-03
-1.064488043036887141e-03
9.557905927724466696e-05
8.617592103027575494e-04
1.172377154008427159e-03
1.218620319253784987e-03
6.601187375789525696e-04
-1.230418672321542022e-04
-4.277350179111285775e-04
-6.530025293329454975e-04
-1.234963604527843962e-03
-2.526859956452756194e-03
-3.547579393013879177e-03
-4.513905463394782963e-03
4.628189832569221465e-03
6.794634692253342240e-03
7.931396128631747894e-03
7.122239858695473928e-03
2.231626408218044012e-03
4.800678769060130638e-04
-3.162372966779218846e-03
-3.950542830031100738e-03
-3.876683744889617995e-03
-3.326151137390495963e-03
-1.576154355495836511e-03
8.063260927959291485e-04
2.652299066556370547e-03
3.466456457724016813e-03
2.805439259153707458e-03
8.237142225507515037e-04
-1.388009232484154051e-03
-2.914933909041919624e-03
-3.555942125659814455e-03
-3.189980544003873011e-03
-2.006486233623270936e-03
-9.451709015438956949e-04
-4.942853767693328702e-04
-3.236544877220110406e-04
-1.130976127935085683e-04
-1.070569823487156912e-04
-1.562586648385765194e-04
-8.024293312353531762e-05
-4.696462393268241962e-04
-1.282195264558582586e-03
-2.133616317538804350e-03
-2.830867110240103436e-03
4.025561680299924450e-03
2.922093445659249260e-03
4.975774782033710875e-03
4.088193548129412033e-03
1.541733643195353307e-03
-9.139050456944045986e-05
-1.804554624964261646e-03
-3.280919522171223124e-03
-4.045585272683005496e-03
-3.026101145722745727e-03
-7.798654680112190006e-04
1.517569130049408604e-03
3.099997339197266798e-03
4.059430052116688725e-03
3.637315543466513451e-03
1.552743261155061427e-03
-8.728532026077227401e-04
-2.723020134941642103e-03
-3.570028186258604724e-03
-2.875209530842302071e-03
-1.255777714231860308e-03
-1.258528398383122033e-04
1.045359784822912867e-04
8.081385122955855781e-06
-4.554344608824415760e-05
-3.923395966147467137e-04
-7.348782989744633573e-04
-6.456506989183121142e-04
-7.661265963486059167e-04
-1.198909127990150985e-03
-1.269735183031714919e-03
-1.738574457668611397e-04
3.697984687771233708e-03
3.028379851854317868e-03
3.748397942060549895e-03
1.947546493461170883e-03
-8.300858807421724087e-05
-2.010529952644341065e-03
-3.704642376124612103e-03
-4.775680129863206155e-03
-3.703969893753339231e-03
-1.160834271536575471e-03
1.277849346782783868e-03
2.959858854208222492e-03
4.317640886023735476e-03
4.494841299793151529e-03
2.948799545129530703e-03
1.072777587190157844e-03
-3.156099069734229125e-04
-9.642972049811487272e-04
-4.515391738484532126e-05
1.753508687581102274e-03
2.644406402210873301e-03
2.205958666004787395e-03
1.224390549077998460e-03
4.572707574723796107e-05
-1.546912681255317246e-03
-2.626514711908971809e-03
-2.332277616300184719e-03
-1.427428849840562189e-03
-7.209230125999495625e-04
2.051681529505642535e-04
2.661997411507689617e-03
1.999615895626330637e-03
2.741135781222264409e-03
2.520101015223746160e-03
9.472484323175561381e-04
-1.569736494027556455e-03
-4.123848828275225586e-03
-5.877958835371157632e-03
-5.122955115818165171e-03
-2.390532357257606211e-03
4.946321917238731634e-04
2.308088629453505618e-03
3.550567439253012568e-03
3.835004587229884007e-03
2.839300616506059208e-03
1.878244244796869024e-03
1.598973266849630127e-03
1.752269793965438626e-03
2.750314296755067799e-03
4.105262153639325368e-03
4.232985986072104918e-03
2.959892922165482422e-03
1.060783029059610225e-03
-1.182281994691181072e-03
-3.636701304989785593e-03
-4.979761695393919614e-03
-4.311377902453204965e-03
-2.420545351892330888e-03
-1.374700827489707582e-03
1.257217022964746567e-03
1.313932316169809378e-03
6.736182719737092255e-03
3.468460486161395462e-03
2.010678876066871509e-03
-3.656277462269094626e-04
-3.605701224331973789e-03
-6.118301237696951132e-03
-5.742961374292176666e-03
-3.075740130656901949e-03
1.226396223705763155e-04
1.711906675081521735e-03
1.968005930301498264e-03
1.428412229063443124e-03
4.998205755731620435e-04
1.602492415351902623e-04
6.841027927875189185e-04
1.515839809057232613e-03
2.439696845886681759e-03
3.143592367378655016e-03
2.822817224532129902e-03
1.799201242595674724e-03
4.773384238725261112e-04
-1.420552724603982341e-03
-3.980151627499813743e-03
-5.797312287360998490e-03
-5.481488343101044609e-03
-3.278629690741397158e-03
-1.102204904066746453e-03
6.702386805850528081e-03
2.833358847762213091e-03
-3.826354888364287858e-06
-3.202425102178402521e-03
-5.177559936784888357e-03
-5.680393267721420281e-03
-3.003938619020933738e-03
-3.274398829953520276e-04
1.323466223394017399e-03
1.737273079358523991e-03
1.098417191948694783e-04
-1.315397889022647650e-03
-1.765154238618606977e-03
-1.246784541688645675e-03
-3.750554773420774384e-04
3.347630324909876224e-04
6.953836721045630236e-04
7.554990367595885081e-04
1.169763067718427750e-03
1.667914991571270563e-03
9.646513430483855600e-04
-1.664955721466986061e-03
-4.674045728092698047e-03
-5.749399121858759718e-03
-4.354424930087115800e-03
-2.197959072453755866e-03
-2.399172438382360991e-03
-2.874628043345469740e-03
-2.783789874588961204e-03
-3.764113224723615939e-03
-4.434526273423984241e-03
4.425132361534837681e-04
2.276530021019531735e-03
4.673662531531727789e-03
1.589771860732608040e-03
-7.508193162984404647e-04
-2.062015358720579224e-03
-2.015219413303069671e-03
-1.233970479178780021e-03
-5.605696333689183129e-04
-2.326478192688517040e-04
2.804468992350127917e-04
